~o
<STREAMINFO> 1 39
<VECSIZE> 39<NULLD><MFCC_D_A_Z_0><DIAGC>
~s "silst"
<MEAN> 39
 -2.178484e+00 2.055434e-01 -8.679346e-01 1.352641e+00 1.718010e+00 1.646955e+00 1.221926e+00 1.064573e+00 5.398320e-01 3.801935e-01 2.793547e-01 8.211139e-01 -4.539803e+00 2.534137e-02 -2.718778e-02 -6.596878e-03 -6.996999e-03 -1.266882e-03 -6.444475e-03 -7.707787e-03 -2.704322e-03 -1.389198e-03 -1.971922e-02 6.687663e-03 -3.302370e-04 4.962958e-02 5.711172e-03 5.884417e-03 -6.538772e-03 6.955049e-03 -6.967159e-03 6.372077e-03 1.920322e-04 1.256666e-03 -2.981201e-04 7.319585e-03 2.381132e-03 4.467627e-03 -2.420812e-02
<VARIANCE> 39
 5.196008e+01 4.067955e+01 4.787909e+01 5.310934e+01 6.117808e+01 5.740255e+01 5.332858e+01 4.737012e+01 4.348604e+01 3.847218e+01 3.391816e+01 3.239062e+01 1.380932e+02 2.000772e+00 1.969878e+00 2.042711e+00 2.431613e+00 2.729680e+00 2.811208e+00 2.849938e+00 2.850545e+00 2.718797e+00 2.514697e+00 2.283885e+00 2.010388e+00 3.241566e+00 3.104352e-01 3.303397e-01 3.416874e-01 4.186892e-01 4.686307e-01 5.029339e-01 5.180207e-01 5.248655e-01 5.058269e-01 4.731139e-01 4.319929e-01 3.799303e-01 4.759325e-01
<GCONST> 1.233054e+02
~h "b"
<BEGINHMM>
<NUMSTATES> 5
<STATE> 2
<MEAN> 39
 2.716008e+00 5.276625e+00 1.622235e+00 4.974992e+00 3.208779e+00 2.130438e+00 -3.359134e-01 -2.082330e+00 -2.019889e+00 -1.343284e-01 -4.829299e-01 -6.266360e-01 -7.352417e+00 -3.698193e-01 5.543832e-02 4.533616e-02 3.279341e-01 2.905568e-01 2.453702e-02 2.886980e-01 6.001999e-02 2.041878e-01 2.790004e-03 1.431850e-02 9.189321e-02 -1.534905e-01 6.135890e-02 -5.083317e-01 -1.156509e-01 -5.392243e-01 -4.608293e-01 -2.886422e-01 -2.143504e-01 2.359224e-02 1.462290e-01 7.039627e-02 5.587466e-02 -4.078020e-02 9.479052e-01
<VARIANCE> 39
 4.392394e+01 3.719379e+01 3.555922e+01 4.564038e+01 3.755572e+01 4.217225e+01 4.001626e+01 4.464696e+01 4.172694e+01 3.431945e+01 2.795496e+01 2.810092e+01 1.187616e+02 3.202877e+00 4.839235e+00 3.163308e+00 5.341403e+00 4.107374e+00 3.804299e+00 3.758238e+00 3.673816e+00 3.830118e+00 3.234727e+00 2.804350e+00 2.495467e+00 1.051428e+01 5.751048e-01 7.684882e-01 6.367236e-01 8.660539e-01 7.727147e-01 7.292210e-01 7.407863e-01 7.263779e-01 7.423846e-01 6.695071e-01 5.841280e-01 5.131655e-01 1.276338e+00
<GCONST> 1.335260e+02
<STATE> 3
<MEAN> 39
 2.475523e+00 7.255642e-01 5.854209e-01 3.830024e-01 4.058487e-01 -5.697479e-01 -1.299643e+00 -2.435351e+00 -2.396001e-01 3.926230e-01 -1.072286e-01 -1.264303e+00 2.499047e+00 8.163725e-01 -1.611418e+00 -3.726543e-01 -1.981321e+00 -1.662719e+00 -7.261741e-01 -8.468592e-01 -7.396935e-02 3.215349e-01 2.976274e-01 1.788922e-01 -3.308784e-01 3.169909e+00 2.847312e-01 -1.495901e-02 6.296486e-02 -1.951395e-01 -2.512364e-01 7.888309e-02 -1.626004e-01 3.091953e-02 -1.680668e-01 -5.133200e-02 -7.008816e-02 -7.749264e-02 -2.329661e-02
<VARIANCE> 39
 3.965482e+01 4.208990e+01 4.401439e+01 6.615270e+01 4.842715e+01 4.915729e+01 4.432274e+01 4.233616e+01 4.415712e+01 3.918540e+01 3.244765e+01 2.936552e+01 7.853475e+01 4.825111e+00 5.898938e+00 6.290206e+00 8.444462e+00 6.699609e+00 6.572021e+00 5.870509e+00 5.716370e+00 6.062071e+00 5.164017e+00 4.421988e+00 4.079241e+00 9.584656e+00 8.132590e-01 8.963032e-01 8.243685e-01 1.306194e+00 1.138456e+00 1.001833e+00 9.794494e-01 9.272224e-01 9.876966e-01 8.197404e-01 7.496747e-01 6.285331e-01 1.594939e+00
<GCONST> 1.435769e+02
<STATE> 4
<MEAN> 39
 3.697764e+00 -6.059400e-01 5.476075e-02 -1.616814e+00 -1.395240e+00 -5.449237e-01 -1.960996e+00 -2.048167e+00 -2.313272e-01 4.237292e-01 -9.090945e-02 -1.514864e+00 3.875622e+00 6.083114e-01 -7.930911e-01 -1.790993e-02 -1.070114e+00 -1.194836e+00 -3.827254e-01 -6.536357e-01 8.465028e-02 -4.413740e-02 -1.269127e-02 -9.583366e-03 -1.199241e-01 1.413228e+00 -2.404150e-02 2.058990e-01 1.189691e-01 1.568584e-01 7.833785e-02 8.917686e-02 1.998392e-02 1.903534e-02 -1.205843e-01 -1.050942e-01 -6.743400e-02 4.002665e-02 -3.221781e-01
<VARIANCE> 39
 3.535291e+01 4.147701e+01 5.761872e+01 7.137188e+01 5.542764e+01 5.436747e+01 4.534338e+01 4.232351e+01 4.323741e+01 3.928764e+01 3.247972e+01 3.165655e+01 7.934313e+01 3.386651e+00 3.408056e+00 5.129816e+00 5.555903e+00 6.040936e+00 4.698602e+00 4.790566e+00 4.307202e+00 4.621839e+00 3.639189e+00 3.446804e+00 2.927928e+00 4.250667e+00 5.035430e-01 5.374119e-01 5.360979e-01 8.703371e-01 7.988879e-01 7.588294e-01 7.373806e-01 6.831618e-01 6.970915e-01 6.143510e-01 5.530351e-01 4.873734e-01 8.728095e-01
<GCONST> 1.348062e+02
<TRANSP> 5
 0.000000e+00 1.000000e+00 0.000000e+00 0.000000e+00 0.000000e+00
 0.000000e+00 6.816991e-01 3.183009e-01 0.000000e+00 0.000000e+00
 0.000000e+00 0.000000e+00 5.202384e-01 4.797616e-01 0.000000e+00
 0.000000e+00 0.000000e+00 0.000000e+00 3.279202e-01 6.720799e-01
 0.000000e+00 0.000000e+00 0.000000e+00 0.000000e+00 0.000000e+00
<ENDHMM>
~h "d"
<BEGINHMM>
<NUMSTATES> 5
<STATE> 2
<MEAN> 39
 4.654558e+00 1.512639e+00 4.952652e+00 2.682281e+00 -3.586042e+00 -3.909732e+00 -3.596980e+00 -1.991577e+00 -2.142060e+00 -1.894397e+00 -2.260712e+00 -1.381925e+00 2.017636e+00 -5.692055e-01 6.924837e-01 2.888373e-01 7.967930e-01 9.810804e-01 4.669900e-01 4.027970e-01 -5.601642e-02 6.172508e-04 -7.688272e-02 -4.539237e-02 1.509033e-01 -1.249162e+00 -2.251557e-01 -2.887561e-01 -1.994502e-01 -3.638260e-01 4.470037e-02 7.842366e-02 1.128020e-01 1.612524e-01 1.511120e-01 6.041065e-02 1.019527e-01 3.643922e-02 3.426441e-01
<VARIANCE> 39
 2.840161e+01 5.588966e+01 4.728127e+01 5.788783e+01 6.877132e+01 5.444143e+01 5.497320e+01 5.628669e+01 4.958554e+01 3.864743e+01 3.665874e+01 3.049707e+01 7.014472e+01 2.434634e+00 5.497691e+00 3.444934e+00 5.963349e+00 5.699900e+00 4.564373e+00 4.935023e+00 5.121750e+00 4.193236e+00 3.494061e+00 3.464033e+00 2.800157e+00 5.899594e+00 3.828170e-01 9.423378e-01 5.352530e-01 1.008960e+00 1.072425e+00 8.382023e-01 8.663691e-01 8.709875e-01 7.393258e-01 6.482065e-01 6.566759e-01 5.240518e-01 1.128317e+00
<GCONST> 1.371863e+02
<STATE> 3
<MEAN> 39
 7.120311e-01 7.381228e-01 4.190354e+00 1.398296e+00 -1.132179e+00 -2.610510e+00 -1.710181e+00 -7.779462e-01 -5.634929e-01 -1.248406e+00 -1.172071e+00 -1.086913e-01 1.856587e+00 -5.730157e-01 -5.260388e-01 -2.596233e-01 -5.808172e-01 1.409190e-02 -4.273275e-02 1.808775e-01 4.235155e-01 4.713978e-01 1.865725e-01 2.523484e-01 1.862843e-01 6.239548e-01 1.984358e-01 -4.512148e-02 -1.080408e-01 -8.600064e-02 -1.933312e-01 -5.910957e-02 -7.883873e-02 -5.711973e-03 -1.930681e-02 4.125269e-02 -4.365088e-03 -7.306559e-02 1.283458e-01
<VARIANCE> 39
 4.491945e+01 4.917929e+01 4.203899e+01 5.636401e+01 5.928916e+01 5.318454e+01 5.140174e+01 4.929184e+01 4.519455e+01 3.600066e+01 3.419863e+01 2.988303e+01 7.380922e+01 4.632854e+00 5.574713e+00 3.935268e+00 6.089671e+00 6.697273e+00 5.848076e+00 5.496178e+00 5.198394e+00 4.686229e+00 3.876515e+00 3.718466e+00 3.228085e+00 8.401227e+00 8.322290e-01 1.011313e+00 7.218243e-01 1.218735e+00 1.208884e+00 1.088303e+00 1.028652e+00 9.447272e-01 8.512710e-01 7.384934e-01 7.250717e-01 6.113107e-01 1.473640e+00
<GCONST> 1.416835e+02
<STATE> 4
<MEAN> 39
 8.268431e-01 1.184746e+00 2.304388e+00 2.124984e+00 2.727938e-02 -1.386791e+00 -5.637408e-01 3.024936e-03 3.337073e-02 -7.331210e-01 -9.563370e-01 4.542351e-02 -1.174999e+00 -2.127780e-01 -6.155684e-02 -3.616063e-01 -1.235674e-01 2.067073e-01 2.944340e-01 2.270125e-01 1.060377e-01 8.692656e-02 1.489581e-01 1.664992e-01 5.988691e-02 -1.852896e-01 1.775059e-02 -7.838558e-02 3.143158e-03 -1.123763e-01 -1.226783e-01 -6.299070e-02 -8.997085e-02 -3.669061e-02 -3.748849e-02 3.327294e-03 2.178474e-02 -6.452157e-03 1.937941e-01
<VARIANCE> 39
 3.230762e+01 3.402163e+01 3.509480e+01 3.534589e+01 4.786852e+01 4.262534e+01 4.231777e+01 4.092492e+01 3.631443e+01 2.959621e+01 2.823774e+01 2.530021e+01 6.708293e+01 2.201953e+00 2.290009e+00 2.266605e+00 2.711694e+00 3.294245e+00 3.151846e+00 3.223792e+00 3.086471e+00 2.890821e+00 2.521150e+00 2.415088e+00 2.112396e+00 2.515406e+00 3.604409e-01 3.893512e-01 3.603938e-01 4.665538e-01 6.073650e-01 5.698566e-01 5.852365e-01 5.595030e-01 5.276232e-01 4.732980e-01 4.450101e-01 3.928742e-01 4.445862e-01
<GCONST> 1.213816e+02
<TRANSP> 5
 0.000000e+00 1.000000e+00 0.000000e+00 0.000000e+00 0.000000e+00
 0.000000e+00 5.085885e-01 4.914115e-01 0.000000e+00 0.000000e+00
 0.000000e+00 0.000000e+00 5.698026e-01 4.301974e-01 0.000000e+00
 0.000000e+00 0.000000e+00 0.000000e+00 5.997480e-01 4.002520e-01
 0.000000e+00 0.000000e+00 0.000000e+00 0.000000e+00 0.000000e+00
<ENDHMM>
~h "f"
<BEGINHMM>
<NUMSTATES> 5
<STATE> 2
<MEAN> 39
 -4.050025e+00 7.752694e-01 -1.393101e-01 2.713021e+00 2.219089e+00 5.966992e-01 2.128886e+00 5.399911e-02 1.322104e+00 2.772791e-01 6.988283e-02 4.651167e-01 1.972018e+00 -2.283317e+00 -1.474158e-01 -2.339083e-01 8.514298e-01 7.862878e-01 4.312885e-01 8.113412e-01 5.615373e-01 7.650573e-01 3.329145e-01 4.905486e-01 5.093994e-01 -5.029776e-01 1.165770e-01 -2.536019e-01 -1.136643e-01 -3.151330e-01 -2.853308e-01 -1.528945e-01 -2.428084e-01 -4.077350e-02 -3.528061e-02 2.929140e-02 -6.169667e-03 -5.390022e-02 2.549729e-01
<VARIANCE> 39
 6.837942e+01 2.647191e+01 3.619862e+01 4.776681e+01 3.679648e+01 4.188980e+01 3.468443e+01 3.472574e+01 3.448651e+01 2.890621e+01 2.677505e+01 2.401620e+01 4.577009e+01 5.623473e+00 3.060792e+00 3.339558e+00 4.709922e+00 3.764571e+00 3.773968e+00 3.603461e+00 3.626477e+00 3.806731e+00 3.166998e+00 3.030768e+00 2.535938e+00 2.305442e+00 8.866425e-01 4.870295e-01 4.669141e-01 6.474569e-01 6.146684e-01 5.845835e-01 5.797798e-01 5.955780e-01 6.358733e-01 5.353737e-01 5.113491e-01 4.315548e-01 3.278186e-01
<GCONST> 1.266248e+02
<STATE> 3
<MEAN> 39
 -7.654876e+00 -1.152997e+00 -1.787657e+00 2.239156e+00 2.409758e+00 6.787667e-01 2.550609e+00 7.495109e-01 2.720039e+00 1.189654e+00 9.603637e-01 1.113837e+00 2.665730e+00 -7.579058e-02 -4.893464e-01 -5.209457e-01 -5.695451e-01 -3.797124e-01 -1.006396e-01 -1.591532e-01 -5.008613e-02 6.911714e-02 7.256371e-02 6.428370e-02 -3.269820e-02 4.717303e-01 7.083969e-01 3.256108e-02 1.831672e-02 -3.158277e-01 -3.026181e-01 -1.185685e-01 -3.161516e-01 -1.641715e-01 -2.504859e-01 -1.123174e-01 -1.354159e-01 -1.552111e-01 1.520052e-01
<VARIANCE> 39
 5.613431e+01 2.471876e+01 3.064112e+01 3.789393e+01 3.165085e+01 3.295771e+01 3.159570e+01 2.997559e+01 2.817710e+01 2.508729e+01 2.349644e+01 2.169299e+01 3.737463e+01 1.020341e+01 2.651636e+00 2.699776e+00 4.198036e+00 3.331091e+00 3.571071e+00 3.240841e+00 3.087900e+00 3.180813e+00 2.783758e+00 2.679457e+00 2.566184e+00 2.675204e+00 8.810772e-01 4.923860e-01 4.800866e-01 6.833162e-01 6.325252e-01 6.270505e-01 6.094307e-01 5.771303e-01 5.973296e-01 5.176759e-01 4.983480e-01 4.438288e-01 3.576005e-01
<GCONST> 1.241567e+02
<STATE> 4
<MEAN> 39
 -7.818995e+00 -1.628979e+00 -2.057230e+00 1.968546e+00 2.141525e+00 8.606886e-01 2.016251e+00 9.770868e-01 2.307685e+00 1.152289e+00 8.836965e-01 1.216464e+00 1.410367e+00 7.379818e-01 -3.609671e-02 -9.786645e-02 -3.248139e-01 -2.767794e-01 -1.076988e-01 -2.291683e-01 -1.583470e-01 -1.926692e-01 -8.818058e-02 -8.587073e-02 -1.282803e-01 1.477398e-01 4.320967e-01 5.160615e-02 5.131784e-02 -1.416558e-01 -1.424333e-01 -6.551681e-02 -1.373512e-01 -5.842198e-02 -1.001002e-01 -6.655902e-02 -5.485608e-02 -7.194665e-02 1.004105e-01
<VARIANCE> 39
 3.925924e+01 1.937220e+01 2.096104e+01 2.434421e+01 2.294806e+01 2.520200e+01 2.430670e+01 2.399018e+01 2.239892e+01 2.060023e+01 1.947355e+01 1.769489e+01 3.586293e+01 4.427506e+00 1.439872e+00 1.516089e+00 2.140105e+00 2.114098e+00 2.167613e+00 2.262607e+00 2.035589e+00 2.107032e+00 1.907812e+00 1.792856e+00 1.674185e+00 1.272800e+00 4.942614e-01 2.659771e-01 2.718625e-01 3.812751e-01 4.135293e-01 3.917341e-01 4.328358e-01 4.026995e-01 4.131645e-01 3.776044e-01 3.555931e-01 3.245719e-01 1.973249e-01
<GCONST> 1.081388e+02
<TRANSP> 5
 0.000000e+00 1.000000e+00 0.000000e+00 0.000000e+00 0.000000e+00
 0.000000e+00 5.846712e-01 4.153288e-01 0.000000e+00 0.000000e+00
 0.000000e+00 0.000000e+00 4.371032e-01 5.628968e-01 0.000000e+00
 0.000000e+00 0.000000e+00 0.000000e+00 8.541515e-01 1.458485e-01
 0.000000e+00 0.000000e+00 0.000000e+00 0.000000e+00 0.000000e+00
<ENDHMM>
~h "g"
<BEGINHMM>
<NUMSTATES> 5
<STATE> 2
<MEAN> 39
 2.242224e+00 1.909453e+00 4.552800e+00 3.357862e+00 -1.299929e+00 -3.181252e+00 -1.698974e+00 -8.697683e-01 -4.294291e+00 -5.516894e-01 8.862173e-02 -1.517031e+00 -1.467741e-01 -3.997853e-01 -1.511305e-01 -2.584220e-01 2.138112e-01 5.570760e-01 1.741062e-01 1.219835e-01 -2.479325e-02 -2.051790e-02 2.317034e-01 -2.146553e-02 1.854775e-01 -2.630679e-01 -3.369852e-02 -3.243276e-01 -2.075935e-01 -3.169882e-01 -1.100708e-01 -8.054209e-02 -1.567435e-01 9.772507e-03 1.572393e-01 5.787384e-02 2.751304e-03 1.748333e-02 5.220413e-01
<VARIANCE> 39
 4.726715e+01 6.229181e+01 7.687582e+01 6.343557e+01 9.195660e+01 7.727753e+01 6.182892e+01 6.511562e+01 7.251237e+01 5.105960e+01 4.456788e+01 3.782645e+01 1.052694e+02 3.540402e+00 7.854265e+00 6.277042e+00 6.592312e+00 7.600791e+00 6.381084e+00 5.861064e+00 5.818408e+00 6.683215e+00 4.836301e+00 4.201288e+00 3.448080e+00 1.045537e+01 6.030027e-01 1.336625e+00 9.867667e-01 1.104721e+00 1.392310e+00 1.191111e+00 1.077154e+00 1.074006e+00 1.232478e+00 9.389750e-01 8.392664e-01 6.700603e-01 1.659494e+00
<GCONST> 1.491839e+02
<STATE> 3
<MEAN> 39
 5.407736e-01 -2.445086e+00 1.155991e+00 2.010647e-01 -8.604965e-01 -3.651135e+00 -3.456374e+00 -1.391085e+00 -3.191822e+00 1.393220e+00 6.231720e-01 -7.209108e-01 5.342846e+00 6.846739e-01 -6.999387e-01 -9.185584e-02 -1.007195e+00 -1.245459e+00 -7.677073e-01 -9.517376e-01 -1.282194e-01 1.375299e-01 1.113867e-01 3.517374e-01 -1.962419e-01 1.933806e+00 3.797472e-01 2.985467e-01 2.022358e-01 5.580639e-02 -2.844509e-01 1.463578e-02 2.270638e-02 1.288876e-02 4.956616e-02 -2.073101e-01 1.246409e-03 -1.327654e-01 -1.786783e-01
<VARIANCE> 39
 3.564332e+01 4.863840e+01 1.003896e+02 5.066398e+01 1.012114e+02 6.820057e+01 5.771989e+01 5.943874e+01 5.219704e+01 4.504545e+01 3.772759e+01 3.066416e+01 5.344557e+01 4.624260e+00 6.105394e+00 7.500819e+00 5.528453e+00 9.075578e+00 6.595948e+00 5.963791e+00 6.400892e+00 5.829232e+00 5.151808e+00 4.509282e+00 3.723841e+00 4.806644e+00 7.464443e-01 1.194550e+00 1.449693e+00 9.906791e-01 1.685898e+00 1.332722e+00 1.158930e+00 1.179619e+00 1.097966e+00 9.653692e-01 8.698582e-01 6.872270e-01 8.579847e-01
<GCONST> 1.467973e+02
<STATE> 4
<MEAN> 39
 4.028648e+00 -1.675076e+00 2.936481e+00 -6.206875e-01 -5.198617e+00 -5.226852e+00 -4.483444e+00 -1.230028e+00 -3.098623e+00 9.383586e-02 1.340321e+00 -1.829682e+00 6.880610e+00 6.516044e-01 -2.443083e-01 -4.299935e-01 -4.937369e-01 -4.338971e-01 -2.104290e-02 -2.211096e-01 1.525373e-01 5.161902e-01 -1.383027e-01 -3.866602e-02 -1.543698e-01 5.563640e-01 -1.241339e-01 -3.465011e-02 -1.542172e-01 3.666546e-02 2.613134e-01 2.044453e-01 1.508840e-01 8.056036e-02 7.273262e-02 -3.537890e-02 -1.361565e-01 3.671044e-02 -1.565045e-01
<VARIANCE> 39
 2.715489e+01 3.835917e+01 7.530473e+01 4.798652e+01 8.905753e+01 5.894947e+01 5.564792e+01 6.083074e+01 5.231488e+01 4.312852e+01 3.954325e+01 3.229632e+01 5.419864e+01 2.878753e+00 3.064615e+00 3.971745e+00 3.575974e+00 5.929764e+00 5.037336e+00 4.621371e+00 4.720108e+00 4.343996e+00 3.729541e+00 3.507674e+00 2.920681e+00 2.177495e+00 3.247170e-01 5.336021e-01 6.382550e-01 4.996118e-01 9.314342e-01 7.652018e-01 7.329226e-01 7.789868e-01 7.178624e-01 6.387162e-01 6.232395e-01 4.836238e-01 3.528608e-01
<GCONST> 1.327623e+02
<TRANSP> 5
 0.000000e+00 1.000000e+00 0.000000e+00 0.000000e+00 0.000000e+00
 0.000000e+00 7.613488e-01 2.386512e-01 0.000000e+00 0.000000e+00
 0.000000e+00 0.000000e+00 6.386974e-01 3.613025e-01 0.000000e+00
 0.000000e+00 0.000000e+00 0.000000e+00 4.692264e-01 5.307736e-01
 0.000000e+00 0.000000e+00 0.000000e+00 0.000000e+00 0.000000e+00
<ENDHMM>
~h "k"
<BEGINHMM>
<NUMSTATES> 5
<STATE> 2
<MEAN> 39
 -3.397501e-01 3.173912e-01 1.453386e+00 2.345149e+00 1.608365e-01 -1.808867e+00 3.204139e-01 1.384171e+00 -1.509398e+00 1.055736e+00 7.343422e-01 1.041051e-01 -1.689612e+00 -6.731315e-01 -1.532408e-01 -4.251090e-01 3.487115e-01 7.123186e-01 3.770510e-01 4.137703e-01 2.849613e-01 3.394752e-01 5.153227e-01 2.583412e-01 4.448662e-01 -8.277618e-01 -6.385740e-02 -2.644998e-01 -1.800093e-01 -2.651706e-01 -6.793978e-02 -1.808225e-02 -6.335983e-02 -2.481098e-02 1.237959e-01 2.822080e-02 -4.022270e-02 -8.912632e-03 4.512842e-01
<VARIANCE> 39
 5.655165e+01 5.514850e+01 7.463985e+01 6.770326e+01 8.863060e+01 8.295835e+01 6.733230e+01 6.897314e+01 6.873180e+01 5.141524e+01 4.263604e+01 3.764545e+01 1.394783e+02 4.219616e+00 6.432751e+00 5.873699e+00 6.622314e+00 7.176696e+00 6.709295e+00 5.989863e+00 5.928047e+00 6.713937e+00 4.776987e+00 4.222407e+00 3.551425e+00 1.268361e+01 6.373596e-01 1.113605e+00 9.419522e-01 1.128940e+00 1.276173e+00 1.281831e+00 1.102060e+00 1.097749e+00 1.277051e+00 9.173052e-01 8.136851e-01 6.809521e-01 2.170148e+00
<GCONST> 1.499514e+02
<STATE> 3
<MEAN> 39
 -3.419552e+00 -3.703598e+00 -2.294528e+00 3.172686e-01 2.430114e+00 -1.241574e+00 1.000718e+00 1.965016e+00 4.236424e-01 3.524555e+00 1.490629e+00 1.495713e+00 1.495195e+00 -2.694331e-01 -6.082697e-01 -2.787145e-01 -7.409214e-01 -2.132730e-01 -2.460058e-01 -1.422625e-01 -1.234692e-01 1.301522e-01 9.467399e-02 -1.025969e-01 -6.650008e-02 1.632526e+00 2.636255e-01 3.439807e-01 3.373877e-01 1.939904e-02 -2.422151e-01 -6.785624e-02 -6.459799e-02 -1.389310e-01 -1.281151e-01 -2.928191e-01 -1.026052e-01 -1.873734e-01 2.245456e-02
<VARIANCE> 39
 3.347599e+01 4.317016e+01 6.472877e+01 4.807010e+01 6.274525e+01 5.700467e+01 5.290989e+01 4.824569e+01 4.644236e+01 3.875416e+01 3.219871e+01 2.770917e+01 7.202273e+01 4.327085e+00 5.317359e+00 5.872571e+00 4.966714e+00 6.172135e+00 5.976735e+00 5.306700e+00 5.018558e+00 5.432117e+00 4.511860e+00 3.710481e+00 3.313842e+00 8.747318e+00 6.984254e-01 1.097688e+00 1.009645e+00 1.000179e+00 1.073063e+00 1.140314e+00 1.052335e+00 9.444643e-01 1.041067e+00 8.612018e-01 7.386814e-01 6.414686e-01 1.821004e+00
<GCONST> 1.425483e+02
<STATE> 4
<MEAN> 39
 -3.437331e+00 -2.862952e+00 -8.601993e-01 -4.727705e-01 1.483247e+00 -9.950948e-01 1.629780e+00 1.339560e+00 6.067379e-01 2.129492e+00 8.043048e-01 7.518154e-01 2.991316e+00 7.060876e-01 4.018119e-01 3.480392e-01 -2.322601e-01 -4.530148e-01 2.664243e-02 -1.097760e-01 -3.488052e-01 -2.046352e-01 -6.878085e-01 -3.077908e-01 -4.033750e-01 3.434017e-01 3.410669e-01 3.680609e-02 -6.628950e-03 -6.915490e-02 -1.796008e-01 -1.897248e-02 -1.729632e-01 -5.690076e-02 -1.384329e-01 -1.223526e-01 -3.945284e-02 -9.675697e-02 2.017399e-02
<VARIANCE> 39
 3.829419e+01 2.972863e+01 5.377633e+01 3.939069e+01 5.805951e+01 5.023227e+01 4.601917e+01 4.377250e+01 3.907597e+01 3.518158e+01 2.977898e+01 2.584913e+01 4.970904e+01 4.862701e+00 2.962384e+00 3.366867e+00 3.457345e+00 4.614986e+00 4.354898e+00 4.244117e+00 3.923189e+00 4.087087e+00 3.804969e+00 3.067399e+00 2.841246e+00 2.959799e+00 5.607625e-01 5.715979e-01 6.042567e-01 6.326687e-01 7.479382e-01 7.524338e-01 7.337296e-01 6.905250e-01 7.263799e-01 6.762898e-01 5.607995e-01 4.951644e-01 6.645662e-01
<GCONST> 1.309121e+02
<TRANSP> 5
 0.000000e+00 1.000000e+00 0.000000e+00 0.000000e+00 0.000000e+00
 0.000000e+00 7.538203e-01 2.461797e-01 0.000000e+00 0.000000e+00
 0.000000e+00 0.000000e+00 6.631991e-01 3.368009e-01 0.000000e+00
 0.000000e+00 0.000000e+00 0.000000e+00 6.483092e-01 3.516908e-01
 0.000000e+00 0.000000e+00 0.000000e+00 0.000000e+00 0.000000e+00
<ENDHMM>
~h "l"
<BEGINHMM>
<NUMSTATES> 5
<STATE> 2
<MEAN> 39
 7.317396e+00 9.417565e-01 -3.089007e+00 -1.163844e+01 -2.267733e+00 2.430908e+00 -5.403416e+00 -6.148492e+00 -1.044858e+00 5.991886e-01 6.043890e-02 -2.010732e+00 8.330909e+00 5.590820e-01 3.460214e-01 -4.056188e-01 -1.485470e+00 1.253701e-01 9.788374e-01 -3.427929e-01 -6.090214e-01 -3.667959e-01 1.169614e-01 4.067851e-01 1.749738e-01 9.159349e-02 -2.416984e-01 -1.332150e-01 1.071857e-01 3.595666e-01 3.102390e-02 -1.824304e-01 1.664366e-01 3.075997e-01 9.895796e-02 -8.163899e-02 -7.272981e-02 4.685532e-02 -5.694001e-02
<VARIANCE> 39
 2.086800e+01 5.006185e+01 4.527369e+01 8.838303e+01 5.356422e+01 6.544349e+01 6.959623e+01 6.286729e+01 6.198295e+01 5.821900e+01 4.401649e+01 4.553292e+01 4.059664e+01 1.683891e+00 3.105473e+00 2.477993e+00 5.057932e+00 3.555323e+00 4.313445e+00 4.731669e+00 4.862213e+00 4.690259e+00 4.337864e+00 3.553659e+00 3.561949e+00 1.865628e+00 3.034000e-01 4.705289e-01 3.803591e-01 8.268188e-01 6.122566e-01 7.083003e-01 7.835824e-01 8.672554e-01 9.075840e-01 8.249932e-01 6.719801e-01 6.641952e-01 2.285117e-01
<GCONST> 1.322926e+02
<STATE> 3
<MEAN> 39
 7.706294e+00 1.195726e+00 -3.685189e+00 -1.362382e+01 -1.531676e+00 3.883142e+00 -5.839508e+00 -5.825656e+00 -9.451066e-01 6.543686e-01 3.346611e-01 -1.629711e+00 8.120560e+00 -2.005722e-01 -3.693436e-01 1.702081e-01 6.644002e-01 7.692966e-02 -4.604994e-01 1.635325e-02 5.539194e-01 4.759543e-01 -1.688064e-02 -4.034396e-01 -1.821190e-01 -1.699264e-02 -1.815819e-01 -7.250854e-02 1.952876e-01 4.997197e-01 -8.909369e-02 -3.087394e-01 1.990853e-01 2.563696e-01 3.518056e-02 -1.357195e-01 -1.346397e-01 2.318693e-02 -8.585271e-02
<VARIANCE> 39
 1.840960e+01 4.352523e+01 4.708628e+01 9.114951e+01 5.554481e+01 6.773110e+01 7.513888e+01 6.462018e+01 6.532967e+01 6.330204e+01 4.583823e+01 4.787852e+01 4.001970e+01 8.236677e-01 3.554633e+00 2.235994e+00 5.079234e+00 3.279432e+00 4.301575e+00 4.097175e+00 4.841595e+00 5.264596e+00 4.635188e+00 3.819913e+00 3.716873e+00 1.904065e+00 1.724389e-01 3.975304e-01 3.700483e-01 7.024629e-01 6.019020e-01 6.692697e-01 7.710195e-01 8.365097e-01 9.559357e-01 8.594217e-01 7.168278e-01 6.773151e-01 2.121856e-01
<GCONST> 1.309445e+02
<STATE> 4
<MEAN> 39
 6.659010e+00 1.907883e+00 -3.413045e+00 -1.037693e+01 -1.553785e+00 3.000268e+00 -2.409468e+00 -3.267958e+00 -7.125831e-01 -2.675093e-01 -3.241887e-01 -8.340536e-01 4.702379e+00 -2.788937e-01 1.337172e-02 3.017228e-01 7.662209e-01 9.254712e-02 -3.623956e-01 1.560488e-01 2.990947e-01 2.102805e-02 -1.369792e-01 -1.249642e-01 6.266952e-02 -3.501307e-01 -8.047733e-02 -3.557947e-02 6.372183e-02 1.442675e-01 -1.945172e-03 -5.027435e-02 2.437295e-02 7.911325e-03 -1.363427e-02 2.343130e-02 2.849197e-02 -3.652856e-03 -1.060662e-02
<VARIANCE> 39
 2.422442e+01 4.021241e+01 3.895311e+01 9.598670e+01 5.316890e+01 5.856739e+01 6.269181e+01 5.187978e+01 4.912086e+01 4.606337e+01 3.654059e+01 3.645876e+01 5.445085e+01 6.484678e-01 1.423782e+00 1.409213e+00 3.027527e+00 2.309138e+00 2.399184e+00 2.332286e+00 2.655556e+00 2.524978e+00 2.411022e+00 2.131157e+00 1.983182e+00 8.363011e-01 1.165177e-01 2.044640e-01 2.089805e-01 4.060716e-01 3.555575e-01 3.887301e-01 4.156576e-01 4.452559e-01 4.926551e-01 4.199403e-01 3.931110e-01 3.515413e-01 1.158055e-01
<GCONST> 1.142274e+02
<TRANSP> 5
 0.000000e+00 1.000000e+00 0.000000e+00 0.000000e+00 0.000000e+00
 0.000000e+00 5.990044e-01 4.009956e-01 0.000000e+00 0.000000e+00
 0.000000e+00 0.000000e+00 5.645247e-01 4.354753e-01 0.000000e+00
 0.000000e+00 0.000000e+00 0.000000e+00 7.731788e-01 2.268212e-01
 0.000000e+00 0.000000e+00 0.000000e+00 0.000000e+00 0.000000e+00
<ENDHMM>
~h "m"
<BEGINHMM>
<NUMSTATES> 5
<STATE> 2
<MEAN> 39
 6.940063e+00 6.481251e-01 1.517793e+00 1.967726e+00 -7.274606e-01 -1.561848e+00 -3.777432e+00 -5.423835e+00 -4.934843e+00 -1.820509e+00 -3.396268e-01 -4.091582e+00 3.809678e+00 3.123676e-01 9.983355e-01 5.292094e-01 1.496832e+00 6.088673e-01 -3.716474e-01 -7.930491e-02 -1.506280e+00 -1.544267e+00 1.392891e-01 5.252808e-01 -4.490381e-01 -8.066165e-01 -1.572017e-01 -1.753368e-01 -8.677135e-03 -2.380663e-01 -1.201586e-01 3.708037e-02 8.000910e-02 2.330078e-01 1.822028e-01 -1.213664e-03 -1.169777e-01 9.653030e-02 1.950240e-01
<VARIANCE> 39
 2.204122e+01 3.842900e+01 4.169835e+01 5.650385e+01 4.802763e+01 5.080869e+01 5.154539e+01 5.989804e+01 6.532037e+01 4.470360e+01 4.194967e+01 3.736047e+01 4.029925e+01 1.584589e+00 2.558191e+00 3.323968e+00 4.086956e+00 3.449407e+00 3.416535e+00 3.855766e+00 4.610410e+00 5.184711e+00 3.730132e+00 3.659281e+00 3.056334e+00 2.292018e+00 1.930452e-01 3.930892e-01 4.951219e-01 6.921831e-01 5.012118e-01 5.552058e-01 6.070362e-01 8.237726e-01 9.674634e-01 5.930153e-01 6.089606e-01 5.137441e-01 2.402144e-01
<GCONST> 1.278454e+02
<STATE> 3
<MEAN> 39
 7.232340e+00 1.901246e+00 2.208522e+00 3.866735e+00 1.614982e-02 -1.913136e+00 -3.590110e+00 -7.803981e+00 -7.404469e+00 -1.584202e+00 2.765843e-01 -4.531597e+00 3.088780e+00 -5.475168e-02 -1.454608e-01 -1.195142e-01 -2.714427e-01 -1.836077e-02 2.103485e-01 1.486025e-01 1.647896e-01 3.024454e-01 -1.134646e-01 -3.037230e-01 7.520920e-02 1.083639e-01 -1.168098e-01 -3.145772e-01 -1.754372e-01 -5.156079e-01 -2.033036e-01 1.547308e-01 5.622227e-02 5.584426e-01 5.725501e-01 -4.732453e-02 -2.270588e-01 1.795986e-01 2.330177e-01
<VARIANCE> 39
 1.798897e+01 3.085098e+01 3.664502e+01 5.492829e+01 4.380806e+01 4.981004e+01 5.060341e+01 5.874717e+01 6.949413e+01 4.681460e+01 4.600537e+01 4.041057e+01 3.510789e+01 8.855774e-01 2.758347e+00 2.750665e+00 4.959853e+00 2.710489e+00 3.047436e+00 3.075178e+00 4.722923e+00 6.026752e+00 3.252666e+00 3.329070e+00 2.678581e+00 2.088954e+00 1.564115e-01 3.425186e-01 4.834512e-01 7.216066e-01 4.923605e-01 5.361559e-01 5.852739e-01 7.952948e-01 1.018151e+00 6.444275e-01 6.831413e-01 5.482149e-01 2.135119e-01
<GCONST> 1.256324e+02
<STATE> 4
<MEAN> 39
 5.097544e+00 2.365026e+00 1.917334e+00 3.029053e+00 4.896023e-01 -1.002030e+00 -1.897264e+00 -4.797689e+00 -4.324675e+00 -1.558985e+00 -1.074316e+00 -2.642420e+00 7.109295e-01 -1.575412e-01 -1.026542e-01 -1.459195e-01 -2.516065e-01 -6.612942e-02 1.567485e-01 1.331672e-01 3.750905e-01 3.768279e-01 -1.933685e-02 -1.259339e-01 1.698412e-01 -5.916625e-02 -3.765232e-02 -1.217113e-01 -6.604008e-02 -1.728143e-01 -8.731699e-02 3.477537e-02 -1.734704e-03 1.699087e-01 1.560127e-01 6.794006e-03 -2.481870e-03 5.523831e-02 9.845463e-02
<VARIANCE> 39
 2.342216e+01 2.549669e+01 3.062670e+01 4.166712e+01 3.698698e+01 3.863798e+01 4.026132e+01 4.752041e+01 4.971776e+01 3.336882e+01 3.108008e+01 3.092759e+01 3.785851e+01 5.696738e-01 1.320362e+00 1.421531e+00 2.212690e+00 1.809814e+00 1.827268e+00 1.914072e+00 2.586629e+00 2.846053e+00 1.966976e+00 1.985205e+00 1.693246e+00 8.938947e-01 9.712608e-02 1.891410e-01 2.426779e-01 3.412738e-01 3.232731e-01 3.192533e-01 3.510090e-01 4.366333e-01 4.869831e-01 3.653679e-01 3.652252e-01 3.147359e-01 1.028440e-01
<GCONST> 1.076390e+02
<TRANSP> 5
 0.000000e+00 1.000000e+00 0.000000e+00 0.000000e+00 0.000000e+00
 0.000000e+00 5.168376e-01 4.831624e-01 0.000000e+00 0.000000e+00
 0.000000e+00 0.000000e+00 4.745564e-01 5.254437e-01 0.000000e+00
 0.000000e+00 0.000000e+00 0.000000e+00 8.054687e-01 1.945313e-01
 0.000000e+00 0.000000e+00 0.000000e+00 0.000000e+00 0.000000e+00
<ENDHMM>
~h "n"
<BEGINHMM>
<NUMSTATES> 5
<STATE> 2
<MEAN> 39
 5.785621e+00 -1.733625e+00 3.854164e+00 -4.571103e-01 -4.925605e+00 -3.253125e+00 -2.947630e+00 -9.332078e-01 -2.832098e+00 -2.890286e+00 -3.658599e+00 -3.197835e+00 6.656195e+00 3.626564e-01 1.148659e+00 4.064751e-01 1.302571e+00 2.098396e-01 -3.054624e-01 1.620814e-01 -1.343010e+00 -7.908341e-01 2.939910e-01 -2.530730e-01 -1.412120e-01 -1.021247e+00 -8.863968e-02 9.547533e-02 -6.760228e-02 2.891118e-02 7.703857e-02 7.478885e-02 1.008949e-01 -1.718147e-01 3.806864e-02 1.009007e-01 4.798868e-02 5.586520e-02 -8.437784e-02
<VARIANCE> 39
 1.912967e+01 4.654665e+01 4.856847e+01 4.955520e+01 5.595725e+01 4.937717e+01 5.404301e+01 7.673164e+01 5.890018e+01 4.770549e+01 4.011576e+01 3.428761e+01 4.834371e+01 1.168674e+00 3.021511e+00 3.108915e+00 3.640511e+00 3.824038e+00 3.656941e+00 3.973746e+00 6.023135e+00 4.312682e+00 3.694350e+00 2.981905e+00 2.574098e+00 2.439360e+00 1.843433e-01 4.773998e-01 4.212208e-01 6.120696e-01 5.796961e-01 5.674205e-01 6.334435e-01 1.098457e+00 7.189837e-01 6.097792e-01 5.007309e-01 4.340119e-01 3.214088e-01
<GCONST> 1.280079e+02
<STATE> 3
<MEAN> 39
 6.282605e+00 1.155622e+00 4.342743e+00 2.670738e+00 -4.167855e+00 -3.715358e+00 -2.227884e+00 -4.589005e+00 -4.036868e+00 -1.821928e+00 -4.168380e+00 -3.184746e+00 4.082728e+00 -1.344020e-02 5.596387e-01 5.400416e-03 5.080119e-01 3.181215e-01 1.392610e-01 2.054234e-01 -5.671742e-01 -1.598293e-01 1.509289e-01 -6.236469e-02 5.230010e-02 -5.774989e-01 -1.696424e-01 -2.407657e-01 -1.355781e-01 -3.494410e-01 4.682882e-02 1.714583e-01 -2.141285e-02 3.962532e-01 2.419835e-01 -6.933808e-02 1.236260e-01 7.204493e-02 1.818274e-01
<VARIANCE> 39
 1.771280e+01 3.901234e+01 3.606384e+01 4.401814e+01 4.529152e+01 4.182070e+01 4.882260e+01 7.646848e+01 5.661298e+01 4.642028e+01 3.825481e+01 3.458708e+01 3.946651e+01 1.098191e+00 4.093114e+00 2.813180e+00 4.184987e+00 3.395439e+00 3.300869e+00 3.825977e+00 7.887230e+00 4.841523e+00 3.713818e+00 2.882207e+00 2.541387e+00 2.764713e+00 1.969963e-01 5.432374e-01 4.545313e-01 6.457490e-01 6.056146e-01 5.783223e-01 6.756576e-01 1.293180e+00 8.194809e-01 6.982684e-01 5.366238e-01 4.781649e-01 3.289474e-01
<GCONST> 1.281089e+02
<STATE> 4
<MEAN> 39
 5.149072e+00 2.651734e+00 3.691842e+00 3.172363e+00 -2.132932e+00 -2.495476e+00 -1.271237e+00 -4.108746e+00 -3.458775e+00 -1.616297e+00 -3.325464e+00 -2.197526e+00 1.186601e+00 -2.428418e-01 2.128875e-01 -1.411912e-01 5.280741e-02 3.501655e-01 2.643751e-01 1.074300e-01 9.804366e-02 1.138055e-01 3.462525e-02 1.479354e-01 1.304502e-01 -4.016427e-01 -1.278158e-01 -1.506370e-01 -6.233102e-02 -1.718559e-01 2.118358e-02 4.324860e-02 -2.958019e-02 2.167782e-01 1.309772e-01 -2.164167e-02 7.349706e-02 3.862142e-02 1.160836e-01
<VARIANCE> 39
 2.024944e+01 3.150956e+01 3.034303e+01 3.359895e+01 4.123962e+01 3.543576e+01 3.871540e+01 5.546243e+01 4.395983e+01 3.556900e+01 3.161674e+01 2.870895e+01 3.992902e+01 7.151235e-01 1.572473e+00 1.381544e+00 1.744690e+00 1.957985e+00 1.878804e+00 2.075105e+00 3.018966e+00 2.371448e+00 2.060429e+00 1.843902e+00 1.622145e+00 9.222453e-01 1.486599e-01 2.690067e-01 2.547357e-01 3.321611e-01 3.717409e-01 3.596907e-01 3.943995e-01 5.761091e-01 4.607083e-01 4.037119e-01 3.526432e-01 3.156929e-01 1.524803e-01
<GCONST> 1.096695e+02
<TRANSP> 5
 0.000000e+00 1.000000e+00 0.000000e+00 0.000000e+00 0.000000e+00
 0.000000e+00 4.484553e-01 5.515447e-01 0.000000e+00 0.000000e+00
 0.000000e+00 0.000000e+00 4.394444e-01 5.605556e-01 0.000000e+00
 0.000000e+00 0.000000e+00 0.000000e+00 7.764640e-01 2.235360e-01
 0.000000e+00 0.000000e+00 0.000000e+00 0.000000e+00 0.000000e+00
<ENDHMM>
~h "p"
<BEGINHMM>
<NUMSTATES> 5
<STATE> 2
<MEAN> 39
 4.245865e-01 2.708698e+00 -1.446030e-02 3.039608e+00 2.273620e+00 1.567838e+00 6.151140e-01 1.873553e-01 3.292935e-01 1.432464e+00 6.888115e-01 5.562876e-01 -6.274936e+00 -7.786952e-01 5.646631e-02 -7.650471e-02 6.576442e-01 6.194650e-01 4.792411e-01 7.944220e-01 5.273463e-01 6.250987e-01 4.692816e-01 4.105638e-01 5.428742e-01 -1.228601e+00 -8.655763e-02 -3.388746e-01 -8.628533e-02 -2.667335e-01 -1.713571e-01 -1.335293e-01 -4.564872e-02 2.436247e-02 8.987391e-02 -1.098556e-02 7.565157e-03 -1.962275e-02 6.131765e-01
<VARIANCE> 39
 5.547390e+01 4.191480e+01 4.396992e+01 5.504440e+01 4.440416e+01 5.347070e+01 4.727233e+01 4.527022e+01 4.296362e+01 3.652489e+01 3.081303e+01 3.001010e+01 1.550217e+02 4.642143e+00 5.034379e+00 3.856762e+00 5.428019e+00 4.315960e+00 4.494943e+00 4.617124e+00 4.400657e+00 4.329342e+00 3.588627e+00 3.205365e+00 2.863680e+00 1.313104e+01 6.908288e-01 8.333033e-01 6.667970e-01 9.304832e-01 7.964029e-01 8.416693e-01 8.544089e-01 8.219618e-01 7.775392e-01 6.850566e-01 6.051422e-01 5.283239e-01 2.029708e+00
<GCONST> 1.387523e+02
<STATE> 3
<MEAN> 39
 -2.886179e+00 -6.808780e-01 -9.212813e-01 2.142657e+00 3.262447e+00 1.364539e+00 3.139477e+00 1.317099e+00 3.327806e+00 2.571512e+00 2.307425e+00 1.932473e+00 -1.796779e+00 -3.679338e-02 -1.008266e+00 -2.030628e-01 -6.688979e-01 -3.186647e-01 -2.522348e-01 -2.935943e-02 -8.559952e-02 2.045847e-01 -1.493704e-01 -8.479832e-02 -1.355739e-01 2.052325e+00 4.647593e-01 8.783839e-02 3.082672e-02 -2.424656e-01 -2.555092e-01 -1.189536e-01 -3.614208e-01 -2.199937e-01 -3.505973e-01 -2.335995e-01 -2.405213e-01 -2.586985e-01 2.388492e-01
<VARIANCE> 39
 2.929432e+01 3.161903e+01 3.034872e+01 3.547348e+01 3.414627e+01 3.986239e+01 3.787968e+01 3.565264e+01 3.325131e+01 2.935367e+01 2.673977e+01 2.388856e+01 8.191457e+01 4.690835e+00 3.938407e+00 3.858183e+00 4.232151e+00 4.503143e+00 4.985357e+00 4.955435e+00 4.446481e+00 4.328732e+00 3.703300e+00 3.330233e+00 3.048316e+00 9.855293e+00 6.523379e-01 7.408205e-01 6.380381e-01 7.365853e-01 8.047975e-01 9.155214e-01 8.717378e-01 8.405124e-01 8.069905e-01 6.942776e-01 6.340973e-01 5.521111e-01 1.874999e+00
<GCONST> 1.338573e+02
<STATE> 4
<MEAN> 39
 -1.901268e+00 -1.629387e+00 -1.716128e+00 6.866183e-01 2.729189e+00 1.706782e+00 2.417966e+00 7.397208e-01 2.307694e+00 1.539961e+00 1.116237e+00 9.064943e-01 -5.384371e-01 7.669103e-01 -1.680740e-01 -1.298701e-01 -6.120290e-01 -4.836774e-01 -2.436348e-01 -5.743831e-01 -3.203246e-01 -4.020237e-01 -3.690377e-01 -3.699362e-01 -3.685167e-01 9.751113e-01 2.964988e-01 9.626849e-02 4.116881e-02 -1.180602e-01 -1.959637e-01 -1.121788e-01 -2.445474e-01 -6.483796e-02 -1.468412e-01 -8.337091e-02 -6.039543e-02 -7.564607e-02 9.652442e-02
<VARIANCE> 39
 2.789804e+01 2.643080e+01 2.974327e+01 3.254632e+01 3.069173e+01 3.420650e+01 3.391032e+01 3.069717e+01 2.781038e+01 2.508149e+01 2.369199e+01 2.102396e+01 5.672535e+01 4.103814e+00 2.724636e+00 2.984251e+00 3.312782e+00 3.669983e+00 3.670465e+00 4.031333e+00 3.421814e+00 3.407073e+00 2.960236e+00 2.731110e+00 2.424356e+00 3.962756e+00 4.753895e-01 4.629271e-01 4.183582e-01 5.022766e-01 5.749889e-01 5.984991e-01 6.267156e-01 6.014591e-01 5.791572e-01 5.225598e-01 4.762226e-01 4.253547e-01 7.638246e-01
<GCONST> 1.231874e+02
<TRANSP> 5
 0.000000e+00 1.000000e+00 0.000000e+00 0.000000e+00 0.000000e+00
 0.000000e+00 6.972080e-01 3.027920e-01 0.000000e+00 0.000000e+00
 0.000000e+00 0.000000e+00 5.970836e-01 4.029164e-01 0.000000e+00
 0.000000e+00 0.000000e+00 0.000000e+00 6.854471e-01 3.145529e-01
 0.000000e+00 0.000000e+00 0.000000e+00 0.000000e+00 0.000000e+00
<ENDHMM>
~h "r"
<BEGINHMM>
<NUMSTATES> 5
<STATE> 2
<MEAN> 39
 7.816854e+00 -3.407197e+00 -6.424441e+00 7.507574e-01 1.540078e-01 -4.532656e+00 -7.402001e+00 -1.348686e+00 4.443365e-01 -7.755322e-01 6.374792e-01 2.677045e-01 6.666594e+00 1.436986e+00 -5.089700e-01 -7.678170e-01 4.261426e-01 3.698573e-02 -1.151098e+00 -1.833102e+00 4.481099e-01 5.692995e-01 -1.978531e-01 -3.919880e-01 5.773689e-02 4.853769e-01 -2.814468e-01 -9.978609e-02 3.240284e-01 -2.872798e-02 -2.417517e-01 7.601748e-02 3.011330e-01 2.304229e-01 -7.490873e-03 -6.044227e-02 -3.512510e-02 -3.395078e-02 -1.987532e-03
<VARIANCE> 39
 6.277988e+01 4.024027e+01 7.688935e+01 5.098606e+01 6.216751e+01 6.332394e+01 8.085237e+01 7.354755e+01 5.955876e+01 4.451062e+01 3.761834e+01 3.515845e+01 4.068391e+01 5.414939e+00 3.170774e+00 4.297441e+00 4.057978e+00 5.222847e+00 4.654521e+00 6.225774e+00 5.499595e+00 5.274050e+00 4.121654e+00 3.275670e+00 2.936579e+00 2.123705e+00 7.735699e-01 5.237037e-01 6.715428e-01 5.443337e-01 7.281409e-01 7.586969e-01 1.186466e+00 9.537523e-01 8.232050e-01 7.078162e-01 6.088720e-01 5.331144e-01 2.757512e-01
<GCONST> 1.367190e+02
<STATE> 3
<MEAN> 39
 1.029207e+01 -6.494100e+00 -6.606828e+00 1.945538e+00 -1.687063e+00 -8.187702e+00 -1.102932e+01 2.708312e+00 2.240959e+00 -2.002398e+00 -5.935567e-01 3.150180e-02 8.838242e+00 -1.744639e-01 -4.689666e-01 9.430082e-01 2.572927e-01 -8.464275e-01 -3.652816e-01 4.508642e-01 7.518157e-01 -1.429828e-01 -3.817239e-01 -1.298184e-01 -1.271597e-01 1.739246e-01 -5.030139e-01 2.708654e-01 4.741668e-01 -2.329294e-01 -8.142226e-02 5.249079e-01 7.705821e-01 -3.025956e-01 -3.688495e-01 9.201412e-02 1.436358e-01 -9.517114e-02 -1.925670e-01
<VARIANCE> 39
 2.865735e+01 3.805355e+01 7.270869e+01 5.113019e+01 6.659897e+01 7.296825e+01 9.198060e+01 7.992565e+01 6.546159e+01 5.150626e+01 3.932623e+01 3.817772e+01 3.555653e+01 2.505111e+00 3.229337e+00 5.196180e+00 3.800873e+00 6.046610e+00 4.826589e+00 6.830369e+00 6.367409e+00 5.264683e+00 4.074785e+00 3.605460e+00 3.114104e+00 2.052302e+00 4.489650e-01 4.004858e-01 5.524570e-01 5.851019e-01 7.981880e-01 7.952734e-01 1.084515e+00 9.910245e-01 8.582658e-01 7.572848e-01 6.106521e-01 5.574853e-01 1.956950e-01
<GCONST> 1.353482e+02
<STATE> 4
<MEAN> 39
 9.064979e+00 -6.204002e+00 -4.407255e+00 1.746653e+00 -2.739872e+00 -7.836912e+00 -8.290005e+00 3.622070e+00 1.617686e+00 -2.220750e+00 -6.138183e-01 -2.498879e-01 7.792241e+00 -5.122403e-01 2.904562e-01 9.199532e-01 -1.182408e-01 -3.185717e-01 4.517887e-01 8.713042e-01 -2.407476e-01 -4.759432e-01 4.717053e-02 4.207484e-02 -1.720355e-01 -3.170141e-01 -1.632093e-01 1.797110e-01 1.210807e-01 -9.954015e-02 6.395105e-02 2.100643e-01 1.459292e-01 -2.143148e-01 -9.142208e-02 8.810782e-02 3.464052e-02 -2.898780e-02 -9.563702e-02
<VARIANCE> 39
 2.668793e+01 3.969614e+01 6.944361e+01 4.498762e+01 6.662897e+01 7.009658e+01 8.446072e+01 7.272701e+01 6.121718e+01 4.614268e+01 3.748047e+01 3.517329e+01 4.175937e+01 1.260495e+00 1.695389e+00 3.036442e+00 2.411947e+00 3.366647e+00 2.965919e+00 3.849176e+00 3.450500e+00 3.223313e+00 2.613401e+00 2.409862e+00 2.134566e+00 1.117467e+00 1.911532e-01 2.640413e-01 3.199680e-01 3.546592e-01 4.913669e-01 4.947849e-01 5.848777e-01 5.851068e-01 5.086967e-01 4.569851e-01 4.115016e-01 3.624876e-01 1.416072e-01
<GCONST> 1.212764e+02
<TRANSP> 5
 0.000000e+00 1.000000e+00 0.000000e+00 0.000000e+00 0.000000e+00
 0.000000e+00 5.209790e-01 4.790210e-01 0.000000e+00 0.000000e+00
 0.000000e+00 0.000000e+00 4.700856e-01 5.299144e-01 0.000000e+00
 0.000000e+00 0.000000e+00 0.000000e+00 6.672792e-01 3.327208e-01
 0.000000e+00 0.000000e+00 0.000000e+00 0.000000e+00 0.000000e+00
<ENDHMM>
~h "s"
<BEGINHMM>
<NUMSTATES> 5
<STATE> 2
<MEAN> 39
 -5.800618e+00 4.957088e+00 1.488636e+00 3.092945e-01 2.908476e+00 -4.202417e+00 1.256066e+00 -4.026721e-01 3.833168e-01 -9.269619e-01 -1.143632e+00 3.422586e-01 5.368097e+00 -3.787849e+00 1.361018e+00 -7.089816e-01 -1.313546e-01 1.870853e+00 3.674253e-01 1.475089e+00 6.423757e-01 5.330518e-01 1.400174e-01 6.936965e-01 6.747633e-01 1.900879e-01 -4.899111e-02 -2.341972e-01 -1.854386e-01 -1.893674e-01 -1.914345e-01 6.751523e-02 -1.599789e-01 6.307103e-02 1.970831e-03 7.665472e-02 9.993751e-02 -1.904775e-02 9.779817e-02
<VARIANCE> 39
 8.210092e+01 4.242471e+01 4.880655e+01 4.703293e+01 5.589130e+01 5.463068e+01 5.509407e+01 4.675311e+01 4.293964e+01 3.548354e+01 3.352028e+01 2.743708e+01 4.124187e+01 4.883206e+00 3.820153e+00 4.530565e+00 4.743026e+00 4.552548e+00 4.866596e+00 4.962351e+00 4.394596e+00 3.996452e+00 3.666960e+00 3.490874e+00 2.777967e+00 1.816272e+00 1.177178e+00 5.829861e-01 6.055990e-01 6.427649e-01 7.877604e-01 7.301570e-01 7.980449e-01 6.923391e-01 6.273216e-01 6.006528e-01 5.684730e-01 4.580849e-01 2.815219e-01
<GCONST> 1.329939e+02
<STATE> 3
<MEAN> 39
 -1.627494e+01 7.076244e+00 -2.095684e+00 -1.080304e+00 6.906658e+00 -3.019324e+00 4.374499e+00 1.648360e+00 2.348444e+00 1.933719e-01 1.286531e+00 2.306669e+00 6.175753e+00 -6.562716e-01 -8.085968e-02 -3.551320e-01 -3.039275e-01 4.340502e-02 1.370322e-01 -3.847023e-02 1.233802e-01 1.424839e-01 1.611698e-01 1.355329e-01 7.430001e-02 6.239130e-02 9.499162e-01 -2.906081e-01 1.986727e-01 6.089345e-02 -4.215498e-01 -6.415240e-02 -3.711703e-01 -2.013153e-01 -1.135924e-01 -4.134646e-02 -2.012674e-01 -2.004510e-01 -1.090272e-01
<VARIANCE> 39
 4.594977e+01 3.453366e+01 4.397789e+01 4.645288e+01 4.220224e+01 4.535710e+01 4.843319e+01 3.878785e+01 3.310189e+01 2.825202e+01 2.807940e+01 2.303105e+01 3.255476e+01 7.333376e+00 2.739060e+00 2.787503e+00 2.593184e+00 3.145659e+00 3.182169e+00 3.564107e+00 2.847558e+00 2.648267e+00 2.501685e+00 2.503302e+00 2.080163e+00 1.639530e+00 5.571516e-01 4.446412e-01 4.785290e-01 5.162179e-01 5.572459e-01 6.287555e-01 6.750734e-01 5.742159e-01 5.325466e-01 5.058739e-01 4.791284e-01 4.060501e-01 2.602741e-01
<GCONST> 1.231094e+02
<STATE> 4
<MEAN> 39
 -1.429868e+01 5.526872e+00 -2.118472e+00 -1.183251e+00 6.291316e+00 -1.842602e+00 3.309428e+00 1.855137e+00 1.778355e+00 6.031884e-01 8.311154e-01 1.814896e+00 3.731744e+00 8.759437e-01 -3.555421e-01 1.397916e-01 3.887585e-02 -3.501151e-01 5.967692e-02 -2.837643e-01 -1.352910e-01 -5.467795e-05 4.551014e-02 -1.126239e-01 -1.620686e-01 -3.225827e-01 3.738672e-01 -1.041275e-01 8.657731e-02 6.489139e-04 -1.587776e-01 -4.592932e-02 -1.213958e-01 -7.376705e-02 -3.148641e-02 -1.442549e-02 -5.027040e-02 -6.695890e-02 1.271411e-02
<VARIANCE> 39
 5.193683e+01 2.881520e+01 3.048052e+01 3.844558e+01 3.283081e+01 3.708293e+01 3.822647e+01 3.100221e+01 2.772165e+01 2.359205e+01 2.330208e+01 1.924307e+01 4.752188e+01 3.860162e+00 1.479582e+00 1.488715e+00 1.663621e+00 2.157046e+00 2.200673e+00 2.545146e+00 2.163218e+00 1.987748e+00 1.850716e+00 1.783112e+00 1.647207e+00 1.461552e+00 4.178912e-01 2.497703e-01 2.592771e-01 3.037148e-01 3.553513e-01 3.941548e-01 4.520975e-01 4.053844e-01 3.830199e-01 3.612111e-01 3.424118e-01 3.112300e-01 2.329581e-01
<GCONST> 1.112213e+02
<TRANSP> 5
 0.000000e+00 1.000000e+00 0.000000e+00 0.000000e+00 0.000000e+00
 0.000000e+00 6.795699e-01 3.204301e-01 0.000000e+00 0.000000e+00
 0.000000e+00 0.000000e+00 6.059288e-01 3.940712e-01 0.000000e+00
 0.000000e+00 0.000000e+00 0.000000e+00 8.723914e-01 1.276086e-01
 0.000000e+00 0.000000e+00 0.000000e+00 0.000000e+00 0.000000e+00
<ENDHMM>
~h "t"
<BEGINHMM>
<NUMSTATES> 5
<STATE> 2
<MEAN> 39
 -1.535656e+00 1.841093e+00 1.478435e+00 2.016189e+00 8.735704e-01 1.453483e-02 3.912309e-01 1.564598e-01 3.083640e-01 8.678137e-01 3.873046e-01 6.371107e-01 -3.218911e+00 -9.474241e-01 -2.171091e-01 -1.246466e-01 -1.703598e-02 4.680687e-01 2.430063e-01 4.709948e-01 2.406230e-01 2.971759e-01 2.009292e-01 3.647433e-01 4.496589e-01 -2.056810e-01 -1.395375e-01 -2.246107e-01 -2.903198e-02 -3.366174e-01 -1.914794e-01 -1.909113e-01 -5.765631e-02 2.605153e-02 6.390410e-03 -7.183043e-02 -5.943297e-03 -1.443263e-02 6.947082e-01
<VARIANCE> 39
 6.362172e+01 4.806154e+01 5.394077e+01 5.846521e+01 6.182987e+01 5.988480e+01 5.277644e+01 5.040856e+01 4.744043e+01 3.900016e+01 3.517192e+01 3.098165e+01 1.211070e+02 5.294235e+00 5.608406e+00 4.622025e+00 6.829247e+00 5.747633e+00 5.445990e+00 4.905846e+00 4.847357e+00 4.478981e+00 3.890400e+00 3.576045e+00 2.941924e+00 1.295490e+01 7.690622e-01 9.156953e-01 7.690397e-01 1.085700e+00 9.864900e-01 1.005054e+00 8.896818e-01 8.807613e-01 8.153948e-01 7.407079e-01 6.777663e-01 5.536445e-01 1.955308e+00
<GCONST> 1.428062e+02
<STATE> 3
<MEAN> 39
 -6.790269e+00 -1.046586e+00 1.296611e+00 -1.786816e+00 6.018089e-01 -1.962906e+00 1.438257e+00 9.750578e-01 1.670671e+00 5.067143e-01 1.322397e+00 1.848651e+00 4.859040e+00 -1.874612e-02 -2.460738e-01 2.652721e-01 -3.092226e-01 -5.037054e-01 -8.216980e-01 -2.889046e-01 2.641094e-02 -3.435684e-03 -2.977872e-01 -2.182394e-01 -1.290613e-01 1.395990e+00 7.119424e-01 1.503153e-01 3.864277e-02 2.454539e-01 -1.465842e-01 -1.071376e-02 -2.761967e-01 -1.180955e-01 -1.615416e-01 -6.310225e-02 -1.990037e-01 -2.391813e-01 -3.493446e-01
<VARIANCE> 39
 7.166450e+01 4.314285e+01 4.302334e+01 5.075544e+01 5.166172e+01 5.284898e+01 5.369206e+01 4.436316e+01 4.007449e+01 3.552395e+01 3.304305e+01 2.887496e+01 6.321188e+01 8.624006e+00 4.344323e+00 4.217086e+00 5.726089e+00 5.549650e+00 5.648379e+00 5.815037e+00 4.783523e+00 4.471161e+00 3.882903e+00 3.748137e+00 3.290629e+00 8.347594e+00 1.253631e+00 8.625102e-01 8.016726e-01 1.149176e+00 1.033813e+00 1.069630e+00 1.090266e+00 9.368230e-01 8.495352e-01 7.763379e-01 7.376697e-01 6.268437e-01 1.496538e+00
<GCONST> 1.417589e+02
<STATE> 4
<MEAN> 39
 -4.074964e+00 -8.188676e-01 1.269299e+00 -2.638288e-01 2.848853e-01 -2.363061e+00 7.630244e-01 1.032178e+00 1.337948e+00 -1.488523e-02 -5.865404e-02 7.636887e-01 3.005590e+00 1.345326e+00 -7.629198e-03 7.368304e-02 1.935567e-01 -4.418629e-01 -2.200539e-01 -6.270486e-01 -2.815300e-01 -3.065255e-01 -2.100186e-01 -3.246525e-01 -3.906623e-01 -1.804407e-02 2.741005e-01 5.431226e-03 -4.799944e-02 -8.146072e-02 -1.013198e-01 7.812522e-02 -1.569183e-01 -9.422239e-02 -1.024738e-01 1.095725e-02 3.364352e-02 -5.603427e-02 4.319958e-04
<VARIANCE> 39
 6.003587e+01 3.252021e+01 3.730844e+01 3.763075e+01 4.697840e+01 4.570051e+01 4.790225e+01 3.958775e+01 3.617616e+01 3.102875e+01 2.868734e+01 2.544253e+01 6.164235e+01 6.115219e+00 2.978405e+00 3.375890e+00 3.583641e+00 4.481419e+00 4.246819e+00 4.902359e+00 3.876900e+00 3.607945e+00 3.170904e+00 3.049999e+00 2.695716e+00 3.103557e+00 7.171402e-01 4.748760e-01 4.549589e-01 5.806566e-01 6.651351e-01 6.754884e-01 7.431067e-01 6.547202e-01 6.101205e-01 5.537698e-01 5.251891e-01 4.602346e-01 6.148851e-01
<GCONST> 1.295004e+02
<TRANSP> 5
 0.000000e+00 1.000000e+00 0.000000e+00 0.000000e+00 0.000000e+00
 0.000000e+00 6.918417e-01 3.081583e-01 0.000000e+00 0.000000e+00
 0.000000e+00 0.000000e+00 5.921216e-01 4.078784e-01 0.000000e+00
 0.000000e+00 0.000000e+00 0.000000e+00 5.250642e-01 4.749358e-01
 0.000000e+00 0.000000e+00 0.000000e+00 0.000000e+00 0.000000e+00
<ENDHMM>
~h "v"
<BEGINHMM>
<NUMSTATES> 5
<STATE> 2
<MEAN> 39
 3.264533e+00 -6.267917e-02 -1.386160e-01 -7.442687e-01 -6.914608e-01 -1.208768e+00 -2.766139e+00 -2.129141e+00 -3.666032e-01 3.614271e-01 -6.872979e-01 -1.857410e+00 4.052012e+00 -3.926868e-01 4.853455e-01 -1.009672e-02 4.774046e-01 4.615723e-01 6.605464e-02 1.328209e-01 -3.260632e-01 -1.527882e-02 -6.626191e-02 1.296816e-01 8.487628e-02 -2.664144e-01 -9.764573e-02 -9.817749e-02 8.828287e-03 -9.173051e-02 -9.307440e-02 -4.805356e-02 4.257253e-02 9.043114e-02 6.191770e-02 -5.187118e-02 -3.046520e-02 2.926671e-02 1.499537e-01
<VARIANCE> 39
 6.496227e+01 6.386401e+01 6.644511e+01 8.654127e+01 6.805118e+01 7.629152e+01 6.682970e+01 6.412878e+01 5.882965e+01 5.191320e+01 4.533649e+01 3.815302e+01 9.197503e+01 5.466515e+00 5.848736e+00 4.286475e+00 7.359049e+00 6.103153e+00 5.502116e+00 5.882032e+00 5.867585e+00 5.103732e+00 4.424673e+00 4.080786e+00 3.317953e+00 6.488292e+00 9.610371e-01 9.734605e-01 7.080821e-01 1.231661e+00 1.020676e+00 9.914425e-01 1.093722e+00 1.044949e+00 8.949556e-01 8.323294e-01 7.557557e-01 6.134261e-01 9.765086e-01
<GCONST> 1.460033e+02
<STATE> 3
<MEAN> 39
 1.656259e+00 1.087287e+00 5.584803e-02 7.957401e-01 3.444998e-01 -1.552006e+00 -2.429371e+00 -3.000404e+00 1.552430e-02 1.299097e-01 -4.507658e-01 -1.933668e+00 4.346636e+00 -5.084194e-01 6.906651e-02 -7.440715e-02 1.141008e-01 1.123675e-01 -4.807352e-02 2.762069e-01 1.173323e-01 1.511464e-01 -7.846848e-02 1.078833e-01 1.685804e-01 1.450133e-02 1.428307e-01 -2.942511e-01 -3.574898e-02 -2.559606e-01 -2.325130e-01 -6.345524e-02 -6.037161e-02 2.459853e-01 2.211934e-02 6.267929e-03 -4.064789e-02 2.908476e-02 1.828797e-01
<VARIANCE> 39
 5.510878e+01 3.614878e+01 3.791203e+01 5.732771e+01 4.285520e+01 4.778127e+01 4.748669e+01 4.104773e+01 3.628547e+01 3.528551e+01 2.939548e+01 2.583066e+01 3.900633e+01 7.949121e+00 5.428758e+00 3.672642e+00 7.396471e+00 5.759835e+00 4.834834e+00 5.476078e+00 4.748880e+00 4.082832e+00 3.607238e+00 3.105728e+00 2.675720e+00 4.318918e+00 1.204425e+00 7.682660e-01 6.125492e-01 1.011906e+00 8.471796e-01 7.881485e-01 9.438882e-01 8.277587e-01 7.137442e-01 6.648954e-01 5.828646e-01 4.757958e-01 5.573802e-01
<GCONST> 1.357118e+02
<STATE> 4
<MEAN> 39
 8.709110e-01 7.632622e-01 -3.534235e-01 3.991930e-01 2.484081e-01 -1.201558e+00 -1.615576e+00 -2.150761e+00 2.884293e-01 2.499056e-01 -2.295757e-01 -1.368047e+00 3.864840e+00 -1.791365e-01 -1.330486e-01 -8.559364e-02 -8.812077e-03 -1.854900e-02 -6.584777e-02 1.442935e-01 3.490993e-01 6.931270e-02 -7.682012e-02 3.037735e-02 2.185080e-01 -7.691685e-02 2.227450e-01 -1.322366e-01 -1.281535e-02 -1.424061e-01 -1.414656e-01 -5.354152e-02 -1.189309e-01 7.296696e-02 -1.982651e-02 9.492053e-03 -2.631583e-02 -7.006101e-03 9.583012e-02
<VARIANCE> 39
 5.736327e+01 3.448984e+01 3.873953e+01 5.140861e+01 4.427982e+01 4.542250e+01 4.476101e+01 4.099618e+01 3.606112e+01 3.233421e+01 2.742634e+01 2.515758e+01 4.022267e+01 4.831623e+00 3.024008e+00 2.487643e+00 4.087301e+00 3.766753e+00 3.407920e+00 3.896077e+00 3.326506e+00 2.972178e+00 2.676093e+00 2.404359e+00 2.088976e+00 2.601743e+00 6.904675e-01 4.627579e-01 3.958550e-01 6.113603e-01 5.856371e-01 5.553539e-01 6.223704e-01 5.961567e-01 5.420521e-01 4.860706e-01 4.349002e-01 3.726048e-01 3.423342e-01
<GCONST> 1.251367e+02
<TRANSP> 5
 0.000000e+00 1.000000e+00 0.000000e+00 0.000000e+00 0.000000e+00
 0.000000e+00 6.147035e-01 3.852965e-01 0.000000e+00 0.000000e+00
 0.000000e+00 0.000000e+00 4.513642e-01 5.486358e-01 0.000000e+00
 0.000000e+00 0.000000e+00 0.000000e+00 5.065171e-01 4.934829e-01
 0.000000e+00 0.000000e+00 0.000000e+00 0.000000e+00 0.000000e+00
<ENDHMM>
~h "w"
<BEGINHMM>
<NUMSTATES> 5
<STATE> 2
<MEAN> 39
 5.453647e+00 4.035215e+00 -1.165613e+00 -1.587958e+00 -1.433499e+00 5.157384e-01 -1.242446e+00 -2.328136e+00 -3.121662e+00 -1.135985e+00 -1.564327e-01 -2.454365e-01 -1.104658e+00 1.387206e+00 6.231649e-01 -4.652539e-01 -1.341737e+00 -8.961335e-01 3.020526e-01 -2.610431e-01 -5.953215e-01 -8.928697e-01 -2.791895e-01 1.386924e-01 2.323588e-02 4.912292e-01 -9.263445e-03 -2.821096e-01 -1.370259e-02 -2.551707e-01 -1.589475e-01 2.611292e-02 -1.924222e-01 -1.778040e-02 1.995917e-02 1.141516e-01 1.148251e-01 -2.846238e-02 3.917917e-01
<VARIANCE> 39
 4.934761e+01 3.942680e+01 3.000113e+01 5.285009e+01 5.292376e+01 4.154249e+01 4.576771e+01 4.049158e+01 4.493824e+01 3.591564e+01 2.995158e+01 2.619051e+01 5.774479e+01 2.967724e+00 3.046276e+00 2.824926e+00 4.448879e+00 4.941094e+00 4.198545e+00 4.385454e+00 4.184591e+00 4.500464e+00 3.772854e+00 3.511797e+00 2.875602e+00 2.797063e+00 4.066603e-01 6.032376e-01 4.454878e-01 7.834204e-01 8.216918e-01 7.844123e-01 8.525271e-01 7.832977e-01 8.503234e-01 7.949296e-01 6.850336e-01 5.516102e-01 3.391640e-01
<GCONST> 1.310478e+02
<STATE> 3
<MEAN> 39
 9.861720e+00 2.111022e+00 -3.248302e+00 -8.254383e+00 -5.027801e+00 2.256613e+00 -4.524457e+00 -4.754177e+00 -6.110095e+00 -2.299323e-01 1.725770e+00 -9.506488e-01 5.132529e+00 3.341939e-01 -1.231029e+00 -1.932106e-01 -5.460085e-01 -2.090120e-01 -3.342040e-02 -1.117920e+00 -2.172459e-01 2.052129e-01 6.734114e-01 3.806844e-01 -4.130331e-01 1.428240e+00 -4.365300e-01 -2.501348e-01 3.185905e-01 5.833726e-01 1.567517e-01 -4.315255e-01 4.465128e-02 4.024692e-01 5.222499e-01 7.460918e-04 -2.867489e-01 -1.434631e-01 -5.358539e-02
<VARIANCE> 39
 3.126298e+01 4.802972e+01 4.201492e+01 7.467557e+01 6.297592e+01 6.780193e+01 7.203668e+01 6.345963e+01 6.920412e+01 6.511927e+01 5.520298e+01 4.469789e+01 4.988374e+01 2.576466e+00 5.020192e+00 3.770231e+00 7.391541e+00 6.325527e+00 8.131037e+00 7.492478e+00 6.595833e+00 7.635058e+00 6.786852e+00 5.874909e+00 4.569447e+00 3.506819e+00 3.509203e-01 6.939077e-01 5.752023e-01 9.907117e-01 1.157843e+00 1.285444e+00 1.366323e+00 1.218794e+00 1.314187e+00 1.355288e+00 1.122223e+00 8.856577e-01 3.755552e-01
<GCONST> 1.447084e+02
<STATE> 4
<MEAN> 39
 9.619061e+00 -8.635040e-02 -3.055159e+00 -8.363058e+00 -5.655759e+00 8.259814e-01 -5.161545e+00 -3.558791e+00 -3.511356e+00 -3.050220e-01 7.250223e-01 -2.002780e+00 7.472036e+00 -2.778909e-01 -8.074286e-01 2.754910e-01 4.181560e-01 -1.540116e-02 -6.286820e-01 -3.934137e-01 4.829506e-01 8.193451e-01 1.420974e-01 -3.360428e-01 -3.141696e-01 5.937045e-01 -1.605210e-01 1.117509e-01 1.499114e-01 2.041148e-01 5.650189e-02 -9.566833e-02 1.634506e-01 8.280321e-02 1.521535e-02 -1.273220e-01 -1.063645e-01 6.596176e-02 -1.463965e-01
<VARIANCE> 39
 2.028093e+01 5.115764e+01 4.264085e+01 6.774525e+01 5.591040e+01 7.451153e+01 6.910239e+01 5.647651e+01 5.984209e+01 5.924167e+01 5.087340e+01 4.203309e+01 3.779445e+01 9.231734e-01 2.253272e+00 2.685390e+00 3.726919e+00 4.040994e+00 4.990278e+00 4.510798e+00 4.406967e+00 4.448963e+00 4.403235e+00 3.803885e+00 3.220973e+00 1.323174e+00 1.544041e-01 4.080099e-01 3.116918e-01 5.308013e-01 6.169086e-01 7.642257e-01 8.849538e-01 7.297662e-01 8.380741e-01 8.206336e-01 7.538545e-01 6.438449e-01 2.227622e-01
<GCONST> 1.291063e+02
<TRANSP> 5
 0.000000e+00 1.000000e+00 0.000000e+00 0.000000e+00 0.000000e+00
 0.000000e+00 6.256768e-01 3.743232e-01 0.000000e+00 0.000000e+00
 0.000000e+00 0.000000e+00 6.358523e-01 3.641477e-01 0.000000e+00
 0.000000e+00 0.000000e+00 0.000000e+00 6.368071e-01 3.631929e-01
 0.000000e+00 0.000000e+00 0.000000e+00 0.000000e+00 0.000000e+00
<ENDHMM>
~h "y"
<BEGINHMM>
<NUMSTATES> 5
<STATE> 2
<MEAN> 39
 -4.847510e-01 2.752517e+00 9.588755e+00 3.093421e-01 -3.462870e+00 -1.166093e+00 -2.514001e+00 -3.068495e+00 -4.177017e+00 -2.102234e+00 -3.528170e-01 -1.089040e+00 2.196710e+00 5.726122e-01 3.062131e-01 2.269360e+00 -2.378436e-01 -1.669209e+00 -2.922159e-01 -8.881161e-01 -6.225442e-01 -1.352711e+00 -7.222063e-01 2.022870e-01 -3.411794e-01 7.904815e-01 8.531940e-02 -1.775171e-01 -6.425519e-02 -3.899916e-02 -2.346700e-01 -5.810236e-02 -4.082592e-02 7.906695e-02 -2.829177e-02 1.960466e-02 1.141271e-01 -1.160446e-02 1.399700e-01
<VARIANCE> 39
 4.164653e+01 3.909361e+01 7.418993e+01 4.504121e+01 6.077604e+01 6.024005e+01 5.368250e+01 4.885550e+01 4.891228e+01 4.150705e+01 3.123733e+01 2.903188e+01 6.618939e+01 4.041941e+00 2.789753e+00 4.890791e+00 4.530192e+00 5.486314e+00 5.840111e+00 5.131184e+00 4.336179e+00 4.752271e+00 4.123935e+00 3.150187e+00 2.805953e+00 2.266583e+00 4.207725e-01 4.488989e-01 9.163788e-01 6.494556e-01 9.236917e-01 9.466450e-01 8.269337e-01 7.709426e-01 7.663225e-01 6.498384e-01 5.196800e-01 4.590282e-01 2.805637e-01
<GCONST> 1.337743e+02
<STATE> 3
<MEAN> 39
 2.034549e+00 1.072847e+00 1.655142e+01 -6.953734e-01 -1.202101e+01 -3.739061e+00 -5.445684e+00 -3.913990e+00 -8.964416e+00 -4.062352e+00 1.609869e+00 -2.435191e+00 7.554694e+00 4.877067e-01 -7.139205e-01 -1.644077e-01 2.500974e-01 -8.980582e-01 -8.103063e-01 -2.531059e-01 4.823253e-01 -2.537294e-01 -1.348583e-01 3.631300e-01 2.346907e-02 6.054190e-01 -2.050181e-02 -5.008768e-02 -7.469949e-01 9.650884e-02 6.089422e-01 -1.501616e-02 5.274982e-02 1.877495e-01 4.636626e-01 1.429043e-01 -1.476628e-01 6.272934e-02 -1.435875e-01
<VARIANCE> 39
 2.002567e+01 3.520577e+01 6.760268e+01 5.398356e+01 5.856064e+01 6.482833e+01 4.819029e+01 5.378372e+01 5.475761e+01 5.421701e+01 4.068740e+01 3.484867e+01 3.280556e+01 1.388731e+00 2.322175e+00 5.305996e+00 2.912160e+00 5.044568e+00 5.230227e+00 4.105501e+00 4.400725e+00 4.399912e+00 3.287884e+00 2.685273e+00 2.219763e+00 1.387934e+00 2.359476e-01 3.130035e-01 5.580678e-01 5.592267e-01 8.204149e-01 9.535803e-01 7.780561e-01 7.688940e-01 7.586757e-01 6.532038e-01 5.262186e-01 4.404175e-01 1.517033e-01
<GCONST> 1.275640e+02
<STATE> 4
<MEAN> 39
 3.075588e+00 6.186985e-01 9.177427e+00 1.220756e+00 -7.817032e+00 -4.412970e+00 -4.387979e+00 -2.582358e+00 -5.812720e+00 -3.153972e+00 8.082988e-01 -1.189740e+00 4.694589e+00 1.782107e-01 -1.624153e-01 -5.529715e-01 1.465578e-01 2.492255e-01 -2.318650e-01 -1.339265e-01 2.205638e-01 2.768678e-01 3.434917e-02 -5.057755e-02 5.955002e-02 -1.936049e-02 -5.723643e-03 2.243558e-02 -9.283209e-02 -1.950069e-02 1.254362e-01 5.280983e-02 -1.486785e-02 -2.550908e-02 8.664232e-02 4.358276e-02 -5.073835e-02 -9.952321e-03 -3.319781e-02
<VARIANCE> 39
 2.019517e+01 2.765232e+01 7.848367e+01 3.935297e+01 6.800273e+01 5.500666e+01 4.963078e+01 4.715464e+01 5.544127e+01 4.503452e+01 3.315552e+01 2.842241e+01 3.868337e+01 4.725650e-01 8.200942e-01 1.873332e+00 1.291918e+00 2.183912e+00 2.313423e+00 2.148394e+00 2.283480e+00 2.325886e+00 1.895838e+00 1.728707e+00 1.460506e+00 4.081191e-01 6.830817e-02 1.248376e-01 2.142273e-01 2.123807e-01 3.560024e-01 4.010904e-01 3.655728e-01 4.076108e-01 3.898517e-01 3.490083e-01 3.128294e-01 2.709590e-01 5.612011e-02
<GCONST> 1.059619e+02
<TRANSP> 5
 0.000000e+00 1.000000e+00 0.000000e+00 0.000000e+00 0.000000e+00
 0.000000e+00 6.199870e-01 3.800130e-01 0.000000e+00 0.000000e+00
 0.000000e+00 0.000000e+00 6.595637e-01 3.404364e-01 0.000000e+00
 0.000000e+00 0.000000e+00 0.000000e+00 8.614355e-01 1.385645e-01
 0.000000e+00 0.000000e+00 0.000000e+00 0.000000e+00 0.000000e+00
<ENDHMM>
~h "z"
<BEGINHMM>
<NUMSTATES> 5
<STATE> 2
<MEAN> 39
 -1.855441e+00 6.808375e+00 3.782406e+00 -8.139065e-02 1.181755e+00 -7.745079e+00 -3.832428e+00 -3.223751e+00 -7.592551e-01 -1.049473e+00 -2.154395e+00 -1.836909e-01 6.350601e+00 -3.492496e+00 2.103621e+00 -5.341257e-01 2.187002e-01 2.422682e+00 3.140772e-01 1.531916e+00 4.487211e-01 4.678543e-01 -1.322230e-01 2.413827e-01 4.877957e-01 -2.734296e-01 -2.960345e-01 -3.381040e-01 -1.938584e-01 -1.679151e-01 -8.343238e-02 3.674651e-01 1.723504e-01 2.654083e-01 4.494507e-02 8.423621e-02 2.079946e-01 -4.161973e-03 7.006432e-02
<VARIANCE> 39
 5.710799e+01 5.148637e+01 4.264407e+01 5.033131e+01 6.593639e+01 5.993015e+01 6.068408e+01 4.601207e+01 4.216916e+01 3.840606e+01 3.144000e+01 2.835713e+01 3.310030e+01 3.800763e+00 4.290618e+00 3.884780e+00 4.902533e+00 4.508872e+00 5.381197e+00 4.990230e+00 4.947382e+00 3.881515e+00 3.508706e+00 3.318895e+00 2.779540e+00 1.162956e+00 9.096147e-01 7.998714e-01 4.962771e-01 5.837045e-01 8.996709e-01 7.352018e-01 8.089404e-01 6.954825e-01 5.939159e-01 5.791051e-01 5.256835e-01 4.547184e-01 1.604458e-01
<GCONST> 1.314782e+02
<STATE> 3
<MEAN> 39
 -1.273821e+01 9.056495e+00 6.785726e-01 -4.147858e-01 7.016232e+00 -4.057341e+00 1.499163e+00 -7.131356e-02 1.419392e+00 -3.948663e-01 -7.829398e-02 1.238113e+00 5.244207e+00 -5.839611e-01 -6.484584e-01 -5.185497e-01 -2.470538e-01 -3.328906e-02 4.644264e-01 2.989020e-01 4.032871e-01 3.078318e-01 2.553110e-01 2.563889e-01 8.898380e-02 -1.024749e-01 1.048864e+00 -4.707643e-01 1.197185e-01 -3.085200e-02 -6.186668e-01 -1.527156e-01 -4.429646e-01 -2.262621e-01 -1.125959e-01 3.378708e-02 -1.276992e-01 -1.471334e-01 -8.223391e-03
<VARIANCE> 39
 5.861464e+01 4.552158e+01 4.679303e+01 5.216086e+01 5.135659e+01 6.041831e+01 5.891087e+01 4.705555e+01 3.809077e+01 3.306006e+01 2.910378e+01 2.480430e+01 3.878717e+01 1.010888e+01 3.623330e+00 3.256508e+00 3.491578e+00 4.676060e+00 4.754228e+00 5.240411e+00 3.991658e+00 3.444415e+00 3.041262e+00 2.777499e+00 2.364730e+00 2.145688e+00 9.468096e-01 7.271569e-01 5.994293e-01 7.095560e-01 8.015010e-01 9.009714e-01 9.339956e-01 7.774648e-01 6.649902e-01 6.066773e-01 5.426431e-01 4.659397e-01 3.379403e-01
<GCONST> 1.326394e+02
<STATE> 4
<MEAN> 39
 -1.085023e+01 5.386779e+00 -3.430549e-01 -1.087198e+00 6.191734e+00 -2.309624e+00 1.435516e+00 1.154454e+00 1.487126e+00 4.425510e-01 2.219601e-01 1.241668e+00 2.107251e+00 9.336365e-01 -6.215038e-01 -7.165101e-02 1.113479e-01 -4.354450e-01 2.220647e-01 -1.231932e-01 -4.627882e-02 8.611628e-03 1.009208e-01 -1.535759e-02 -9.355332e-02 -4.932973e-01 3.111722e-01 -5.397510e-02 7.513682e-02 2.683642e-02 -1.302364e-01 -2.978412e-02 -8.611266e-02 -7.676621e-02 -5.606704e-02 -1.934167e-02 -3.758579e-02 -4.418912e-02 -8.535895e-03
<VARIANCE> 39
 6.289286e+01 3.547386e+01 3.296795e+01 4.126184e+01 3.895921e+01 4.708109e+01 4.647692e+01 3.851054e+01 3.236344e+01 2.738033e+01 2.516285e+01 2.168785e+01 5.494490e+01 3.716682e+00 1.957361e+00 1.750629e+00 2.034896e+00 2.522637e+00 2.639908e+00 2.926606e+00 2.564169e+00 2.370481e+00 2.149964e+00 1.955417e+00 1.763696e+00 1.564842e+00 4.982928e-01 3.099652e-01 3.016158e-01 3.519356e-01 4.214050e-01 4.789105e-01 5.251921e-01 4.761843e-01 4.472592e-01 4.149302e-01 3.783290e-01 3.351451e-01 2.354023e-01
<GCONST> 1.168902e+02
<TRANSP> 5
 0.000000e+00 1.000000e+00 0.000000e+00 0.000000e+00 0.000000e+00
 0.000000e+00 6.913170e-01 3.086830e-01 0.000000e+00 0.000000e+00
 0.000000e+00 0.000000e+00 6.471667e-01 3.528333e-01 0.000000e+00
 0.000000e+00 0.000000e+00 0.000000e+00 8.102438e-01 1.897562e-01
 0.000000e+00 0.000000e+00 0.000000e+00 0.000000e+00 0.000000e+00
<ENDHMM>
~h "aa"
<BEGINHMM>
<NUMSTATES> 5
<STATE> 2
<MEAN> 39
 4.442211e+00 -1.702047e+00 -2.752731e+00 -4.550965e+00 -1.197354e+00 1.242490e+00 -2.379502e+00 -2.403960e+00 -2.887889e-01 4.292373e-01 -5.542861e-01 -2.182829e+00 5.685676e+00 1.256291e+00 -1.091407e+00 -1.035051e+00 -1.720991e+00 -3.280214e-01 8.163358e-01 -5.754006e-01 -6.792494e-02 3.485205e-01 -3.843399e-02 -3.870424e-01 -7.930044e-01 1.541144e+00 -1.298555e-01 -5.856703e-02 -4.255981e-02 -2.070037e-02 1.279514e-01 1.064840e-01 8.847244e-02 5.370048e-02 -1.541203e-02 -7.444640e-02 -2.179782e-02 4.968088e-02 2.411837e-02
<VARIANCE> 39
 4.851058e+01 4.488004e+01 5.462565e+01 7.343102e+01 6.582135e+01 7.423660e+01 7.006601e+01 5.804909e+01 5.568884e+01 4.757490e+01 4.343303e+01 3.616254e+01 7.137457e+01 5.192688e+00 4.036985e+00 4.457127e+00 6.636429e+00 5.782647e+00 6.621575e+00 5.823379e+00 6.034119e+00 6.376379e+00 4.834370e+00 4.183522e+00 3.777567e+00 4.333726e+00 6.897224e-01 6.539860e-01 5.845086e-01 9.566201e-01 8.378186e-01 9.860383e-01 9.782076e-01 9.361098e-01 9.155152e-01 7.854852e-01 7.248398e-01 6.488016e-01 6.937780e-01
<GCONST> 1.421571e+02
<STATE> 3
<MEAN> 39
 7.729698e+00 -4.917695e+00 -4.278163e+00 -8.682570e+00 -2.345573e+00 1.969865e+00 -4.007412e+00 -2.634128e+00 -7.868171e-02 -7.130039e-02 -1.494096e+00 -3.736846e+00 1.159743e+01 2.439147e-01 -6.267249e-01 -5.125055e-01 -5.947195e-01 2.700913e-01 5.470855e-01 5.578563e-03 5.254047e-02 1.983878e-01 -9.668867e-02 -2.372510e-01 -2.959286e-01 6.256669e-01 -3.365738e-01 3.162710e-01 1.817699e-01 3.869877e-01 2.195171e-01 -1.358573e-01 2.240789e-01 -8.429538e-03 -1.166191e-01 -9.346053e-02 3.925218e-02 2.356348e-01 -3.562045e-01
<VARIANCE> 39
 4.395238e+01 6.232507e+01 8.375386e+01 8.625729e+01 8.291526e+01 1.096679e+02 9.970769e+01 7.898660e+01 7.456520e+01 7.052663e+01 6.156273e+01 4.928632e+01 6.347174e+01 2.839248e+00 3.891256e+00 4.484614e+00 5.811987e+00 5.275609e+00 7.189117e+00 5.678139e+00 5.657793e+00 5.330766e+00 4.575324e+00 4.201165e+00 3.695187e+00 2.722249e+00 5.067632e-01 6.324577e-01 6.134591e-01 9.043874e-01 8.701480e-01 1.006459e+00 1.090274e+00 1.083183e+00 1.040395e+00 9.097116e-01 8.004293e-01 7.274096e-01 4.053207e-01
<GCONST> 1.438145e+02
<STATE> 4
<MEAN> 39
 8.485473e+00 -6.828700e+00 -7.954464e+00 -1.060920e+01 -1.426143e-01 6.285251e+00 -2.173342e+00 -2.960993e+00 1.060159e-01 -8.613322e-01 -2.149857e+00 -4.424236e+00 1.154584e+01 -1.294755e-01 2.639648e-01 1.496963e-01 5.222340e-01 2.179079e-01 -4.248979e-01 -6.453717e-02 9.807361e-02 6.071609e-02 -1.369254e-02 -9.415714e-02 8.396973e-02 -3.483276e-01 -1.338114e-01 2.239057e-01 1.779400e-01 2.566071e-01 7.838038e-03 -2.167482e-01 5.258635e-03 3.620173e-02 -2.271509e-02 1.055537e-02 2.580969e-02 9.170406e-02 -2.005691e-01
<VARIANCE> 39
 1.634964e+01 4.395588e+01 3.877418e+01 5.938562e+01 5.730611e+01 7.626269e+01 7.091602e+01 5.466834e+01 5.003131e+01 5.113822e+01 4.456712e+01 3.860293e+01 3.277675e+01 7.663040e-01 1.611730e+00 1.615419e+00 2.485918e+00 2.171231e+00 3.245532e+00 2.622147e+00 2.615543e+00 2.373622e+00 2.219722e+00 2.071197e+00 1.903701e+00 9.251847e-01 1.411491e-01 2.391636e-01 2.357615e-01 3.420860e-01 3.540277e-01 4.287226e-01 4.444523e-01 4.430999e-01 4.203759e-01 3.898147e-01 3.662328e-01 3.477599e-01 1.301813e-01
<GCONST> 1.145398e+02
<TRANSP> 5
 0.000000e+00 1.000000e+00 0.000000e+00 0.000000e+00 0.000000e+00
 0.000000e+00 5.139760e-01 4.860240e-01 0.000000e+00 0.000000e+00
 0.000000e+00 0.000000e+00 5.278590e-01 4.721410e-01 0.000000e+00
 0.000000e+00 0.000000e+00 0.000000e+00 8.570488e-01 1.429512e-01
 0.000000e+00 0.000000e+00 0.000000e+00 0.000000e+00 0.000000e+00
<ENDHMM>
~h "ae"
<BEGINHMM>
<NUMSTATES> 5
<STATE> 2
<MEAN> 39
 2.269701e+00 -3.697920e+00 -5.844439e-01 -1.252313e+00 -2.916934e+00 -2.351903e+00 7.612283e-01 1.691621e+00 1.112653e+00 -1.223987e+00 -2.542235e+00 -1.890241e+00 5.792733e+00 1.094604e+00 -1.526180e+00 -3.512954e-01 -9.746091e-01 -9.572974e-01 -3.711621e-01 -3.347050e-01 7.320584e-01 3.635854e-01 -5.494682e-01 -9.978888e-01 -7.020198e-01 1.882498e+00 -8.979844e-02 -6.177180e-02 1.355517e-02 -3.130409e-02 8.556782e-02 1.372416e-01 1.664150e-02 -2.430810e-02 -5.947196e-02 -1.154915e-02 4.961547e-03 2.387032e-02 3.674293e-02
<VARIANCE> 39
 3.831723e+01 5.156541e+01 4.565895e+01 4.592772e+01 6.359940e+01 6.203968e+01 6.768908e+01 5.544394e+01 4.813113e+01 4.422969e+01 3.918041e+01 3.603339e+01 9.612661e+01 3.867028e+00 4.448895e+00 3.544187e+00 4.111390e+00 4.823112e+00 4.948166e+00 5.427930e+00 5.346896e+00 4.800320e+00 4.133406e+00 3.836107e+00 3.432465e+00 5.083871e+00 5.877454e-01 6.910170e-01 4.755065e-01 6.306635e-01 7.750372e-01 7.637779e-01 8.385956e-01 7.896536e-01 7.259600e-01 6.737192e-01 6.317741e-01 5.507013e-01 8.051133e-01
<GCONST> 1.371331e+02
<STATE> 3
<MEAN> 39
 5.182424e+00 -8.691957e+00 -1.005123e+00 -4.336077e+00 -5.684817e+00 -3.178327e+00 -4.348215e-01 3.664028e+00 1.622019e+00 -2.782961e+00 -5.213690e+00 -3.889943e+00 1.255834e+01 3.696321e-01 -9.297419e-01 -1.894414e-01 -4.133353e-01 -2.198709e-01 1.917469e-01 -2.387322e-02 3.833048e-01 7.146585e-02 -3.384311e-01 -4.920717e-01 -2.735581e-01 8.023531e-01 -3.198049e-01 5.109553e-01 9.606282e-02 3.615634e-01 3.748261e-01 1.435095e-01 1.207498e-01 -3.345842e-01 -1.661810e-01 1.333193e-01 2.811153e-01 2.149726e-01 -5.699944e-01
<VARIANCE> 39
 2.055445e+01 4.661478e+01 4.931628e+01 3.867076e+01 5.733533e+01 5.903500e+01 6.452148e+01 5.663128e+01 5.494300e+01 4.877018e+01 3.995482e+01 3.473510e+01 4.809828e+01 1.672985e+00 3.395414e+00 2.655138e+00 2.983059e+00 3.515648e+00 3.499547e+00 4.149512e+00 3.960806e+00 3.221609e+00 3.109726e+00 2.803814e+00 2.462506e+00 2.740105e+00 3.602231e-01 5.400305e-01 4.272312e-01 5.395094e-01 6.063509e-01 6.341811e-01 7.046556e-01 7.327814e-01 6.697932e-01 5.778927e-01 5.322685e-01 4.716245e-01 4.163605e-01
<GCONST> 1.278598e+02
<STATE> 4
<MEAN> 39
 5.564660e+00 -9.736855e+00 -2.291593e+00 -3.890501e+00 -4.410479e+00 -1.667653e+00 8.653809e-01 3.619452e+00 1.153883e+00 -4.000362e+00 -5.972859e+00 -4.002621e+00 1.248837e+01 -9.675551e-03 4.855268e-01 5.551431e-02 2.674119e-01 2.635516e-01 -5.103536e-02 -1.493245e-01 -2.244655e-01 -4.740394e-02 1.583322e-01 1.135331e-01 5.982846e-02 -5.086080e-01 -9.282751e-02 3.008239e-01 1.039390e-01 1.515234e-01 9.009482e-02 -3.329283e-02 -2.429617e-02 -1.259097e-01 -4.745433e-02 1.006221e-01 1.301552e-01 6.636782e-02 -2.629396e-01
<VARIANCE> 39
 1.526165e+01 3.975197e+01 4.545133e+01 3.388702e+01 5.308144e+01 5.211204e+01 5.411064e+01 5.085239e+01 5.032119e+01 4.447147e+01 3.678094e+01 3.271302e+01 3.821663e+01 6.080476e-01 1.783117e+00 1.401285e+00 1.508600e+00 1.858743e+00 1.962150e+00 2.206363e+00 2.264323e+00 1.956608e+00 1.921086e+00 1.760026e+00 1.494565e+00 1.172850e+00 1.426786e-01 2.435885e-01 2.217806e-01 2.786692e-01 3.281353e-01 3.427466e-01 3.822621e-01 4.105488e-01 3.623557e-01 3.358213e-01 3.142954e-01 2.804737e-01 1.747011e-01
<GCONST> 1.094421e+02
<TRANSP> 5
 0.000000e+00 1.000000e+00 0.000000e+00 0.000000e+00 0.000000e+00
 0.000000e+00 5.371724e-01 4.628276e-01 0.000000e+00 0.000000e+00
 0.000000e+00 0.000000e+00 4.232808e-01 5.767192e-01 0.000000e+00
 0.000000e+00 0.000000e+00 0.000000e+00 8.531645e-01 1.468355e-01
 0.000000e+00 0.000000e+00 0.000000e+00 0.000000e+00 0.000000e+00
<ENDHMM>
~h "ah"
<BEGINHMM>
<NUMSTATES> 5
<STATE> 2
<MEAN> 39
 1.748351e+00 -7.030942e-01 1.058827e-02 -1.270138e+00 -1.334054e+00 -2.271629e+00 -2.478705e+00 -7.233589e-01 1.233911e+00 1.225717e-01 -1.484827e+00 -1.446637e+00 3.782883e+00 1.115975e+00 -6.000381e-01 2.346798e-02 -8.023562e-01 -6.535950e-01 -3.453401e-01 -8.733779e-01 -7.982698e-02 1.775930e-01 -7.507357e-03 -4.912658e-01 -5.065598e-01 1.139210e+00 -6.172330e-02 7.279583e-02 4.802428e-02 2.594247e-02 6.817716e-02 1.312591e-01 1.021597e-01 -4.057596e-02 -1.265689e-01 -5.625146e-03 5.672612e-02 3.449322e-02 -6.245216e-02
<VARIANCE> 39
 5.031800e+01 4.741931e+01 4.803440e+01 5.790605e+01 5.735151e+01 6.615479e+01 6.314055e+01 5.246308e+01 4.752311e+01 4.422842e+01 3.786686e+01 3.439269e+01 1.020875e+02 5.603609e+00 4.349671e+00 3.883797e+00 5.526699e+00 5.260252e+00 5.508457e+00 5.864455e+00 5.178699e+00 4.814377e+00 4.276042e+00 3.811480e+00 3.375690e+00 6.762383e+00 8.021965e-01 7.372706e-01 5.625730e-01 9.050955e-01 8.649372e-01 9.025515e-01 1.001676e+00 8.433309e-01 8.057512e-01 7.378005e-01 6.715686e-01 5.843736e-01 1.060436e+00
<GCONST> 1.406976e+02
<STATE> 3
<MEAN> 39
 5.099968e+00 -2.813209e+00 1.433044e-01 -4.013420e+00 -3.041758e+00 -2.984942e+00 -5.196497e+00 -1.237925e+00 1.342824e+00 1.595266e-01 -2.736323e+00 -3.074875e+00 8.125686e+00 4.675865e-01 1.747489e-01 1.395315e-01 -1.035360e-02 -2.045301e-02 1.904582e-01 -6.006974e-02 -1.754729e-01 -2.415295e-01 -4.842511e-02 -7.539840e-02 -8.892471e-02 -9.139086e-02 -4.197144e-01 4.024916e-01 5.394349e-02 3.876571e-01 3.070004e-01 1.711135e-01 4.226833e-01 -7.356533e-02 -1.966055e-01 -5.422983e-02 1.949807e-01 2.016742e-01 -4.830666e-01
<VARIANCE> 39
 2.848146e+01 4.669680e+01 5.036941e+01 5.944616e+01 5.346026e+01 6.707258e+01 6.135304e+01 5.558290e+01 5.140406e+01 5.071616e+01 4.188730e+01 3.589207e+01 5.318882e+01 3.121668e+00 4.075758e+00 3.067191e+00 5.384197e+00 4.452330e+00 4.419641e+00 4.671844e+00 4.553751e+00 4.030442e+00 3.648578e+00 3.296306e+00 2.891101e+00 4.286342e+00 5.993797e-01 7.065193e-01 5.277029e-01 8.997994e-01 7.917303e-01 8.569731e-01 9.567556e-01 8.948600e-01 8.354514e-01 7.464767e-01 6.661186e-01 5.786659e-01 6.221473e-01
<GCONST> 1.360845e+02
<STATE> 4
<MEAN> 39
 4.560315e+00 -1.064269e+00 -2.088955e-01 -2.666115e+00 -1.634475e+00 -1.546115e+00 -3.311555e+00 -1.418134e+00 8.118581e-01 1.583585e-01 -2.115678e+00 -2.389989e+00 5.216860e+00 -2.043430e-01 5.980448e-01 1.766962e-01 4.544420e-01 3.365274e-01 2.539854e-01 4.033231e-01 -1.741941e-01 -3.599163e-01 -1.173328e-01 1.507509e-01 1.943651e-01 -6.670029e-01 -2.331595e-01 1.020989e-01 3.395442e-02 1.237338e-01 8.382199e-02 1.285872e-03 1.209966e-01 -1.294685e-02 -5.057561e-02 2.878427e-03 8.831663e-02 8.394870e-02 -1.026253e-01
<VARIANCE> 39
 3.019510e+01 4.261939e+01 4.783327e+01 5.695367e+01 4.968454e+01 5.874831e+01 5.199574e+01 4.858817e+01 4.559819e+01 4.269851e+01 3.692605e+01 3.257526e+01 6.129541e+01 2.125481e+00 2.524612e+00 2.124275e+00 3.637174e+00 3.118980e+00 3.171975e+00 3.363654e+00 3.375933e+00 3.075666e+00 2.710468e+00 2.476197e+00 2.173735e+00 2.382234e+00 3.717709e-01 4.377995e-01 3.519357e-01 5.393441e-01 5.322360e-01 5.428435e-01 6.030159e-01 6.086651e-01 5.602955e-01 5.029882e-01 4.618987e-01 4.018222e-01 3.994598e-01
<GCONST> 1.248717e+02
<TRANSP> 5
 0.000000e+00 1.000000e+00 0.000000e+00 0.000000e+00 0.000000e+00
 0.000000e+00 4.760043e-01 5.239957e-01 0.000000e+00 0.000000e+00
 0.000000e+00 0.000000e+00 3.837529e-01 6.162471e-01 0.000000e+00
 0.000000e+00 0.000000e+00 0.000000e+00 5.189725e-01 4.810275e-01
 0.000000e+00 0.000000e+00 0.000000e+00 0.000000e+00 0.000000e+00
<ENDHMM>
~h "ao"
<BEGINHMM>
<NUMSTATES> 5
<STATE> 2
<MEAN> 39
 6.482465e+00 7.075297e-01 -4.643589e+00 -8.349998e+00 -3.900043e+00 2.333441e+00 -1.490495e+00 -2.612129e+00 -1.424958e+00 -3.813004e-02 4.072617e-01 -1.567546e+00 5.258676e+00 1.768020e+00 -1.409460e-01 -9.779294e-01 -2.577710e+00 -1.352836e+00 1.026847e+00 4.353139e-02 -1.032717e-01 -5.344473e-01 -3.358049e-01 1.734689e-01 -7.846742e-02 1.085020e+00 -3.973216e-01 -1.287823e-01 6.579343e-02 1.878018e-01 2.181135e-01 5.379152e-02 1.448926e-01 1.409203e-01 2.650209e-02 -6.722258e-02 4.402860e-02 1.709890e-01 -2.925746e-02
<VARIANCE> 39
 4.214226e+01 4.323663e+01 4.047213e+01 8.209866e+01 6.991262e+01 6.150655e+01 6.538357e+01 5.164140e+01 5.307095e+01 4.871528e+01 4.183194e+01 3.816064e+01 6.063767e+01 4.392617e+00 3.274254e+00 3.312852e+00 6.153472e+00 6.256044e+00 5.132575e+00 5.346214e+00 5.142022e+00 5.399908e+00 4.387814e+00 3.952986e+00 3.528096e+00 2.531278e+00 6.930820e-01 4.952345e-01 4.559743e-01 1.122375e+00 9.035289e-01 7.171373e-01 8.414925e-01 7.594337e-01 8.448412e-01 7.524278e-01 6.694949e-01 5.740656e-01 4.093151e-01
<GCONST> 1.373920e+02
<STATE> 3
<MEAN> 39
 9.814362e+00 -5.352916e-01 -6.775101e+00 -1.375549e+01 -6.620644e+00 4.888024e+00 -7.283616e-01 -1.792466e+00 -3.292419e+00 -1.798472e+00 1.269954e+00 -9.830880e-01 8.688353e+00 3.149783e-01 -4.419488e-01 -6.318150e-01 -5.240750e-01 1.799556e-01 5.018554e-01 1.296993e-01 2.249059e-01 -1.072617e-01 -3.111603e-01 1.510843e-01 3.411793e-01 3.535690e-01 -2.963770e-01 3.018117e-02 1.657645e-01 6.255692e-01 3.946595e-01 -2.915237e-01 -1.503904e-01 4.256494e-03 1.851441e-01 7.679887e-02 -1.131542e-01 -9.486633e-03 -2.315739e-01
<VARIANCE> 39
 2.524909e+01 4.451488e+01 4.188486e+01 7.242695e+01 7.328747e+01 6.761086e+01 6.581753e+01 6.216893e+01 5.950704e+01 5.557445e+01 5.124073e+01 4.700420e+01 3.474663e+01 7.957268e-01 1.836633e+00 1.909348e+00 3.844412e+00 3.780207e+00 3.352464e+00 4.067763e+00 3.177995e+00 3.364538e+00 3.132056e+00 3.068670e+00 2.776250e+00 9.564461e-01 2.448904e-01 2.848481e-01 3.213720e-01 5.131733e-01 5.833862e-01 5.380032e-01 6.299608e-01 5.938145e-01 6.786301e-01 5.876493e-01 5.712963e-01 5.228149e-01 1.533657e-01
<GCONST> 1.242976e+02
<STATE> 4
<MEAN> 39
 9.471681e+00 -4.271337e-01 -7.166179e+00 -1.393935e+01 -4.705654e+00 5.789806e+00 -1.021578e-01 -2.031504e+00 -1.826934e+00 -2.412740e+00 -2.183007e-01 -5.031670e-01 7.887501e+00 -4.221816e-02 -5.962880e-02 -5.305096e-02 4.613695e-01 3.610595e-01 -2.562379e-01 -2.317752e-01 3.358214e-02 1.116816e-01 8.235892e-02 -1.240409e-02 3.121871e-03 -1.456587e-01 -6.150687e-02 2.430787e-02 9.036728e-02 2.071892e-01 6.267336e-02 -1.411230e-01 -8.272897e-02 -5.923684e-03 3.490903e-02 5.396339e-02 -1.666466e-02 -3.321677e-02 -6.546162e-02
<VARIANCE> 39
 1.838998e+01 4.304364e+01 3.948418e+01 7.835155e+01 7.431427e+01 6.415953e+01 6.060125e+01 4.980607e+01 4.671035e+01 4.772119e+01 4.081266e+01 3.836960e+01 3.071033e+01 3.289359e-01 9.248177e-01 1.042037e+00 1.856797e+00 1.765000e+00 1.892208e+00 2.181150e+00 1.833179e+00 1.937532e+00 1.853157e+00 1.737029e+00 1.581163e+00 3.974727e-01 6.459984e-02 1.215819e-01 1.588139e-01 2.365027e-01 2.614518e-01 2.808508e-01 3.161420e-01 3.041450e-01 3.257516e-01 3.050886e-01 3.027790e-01 2.714956e-01 5.509204e-02
<GCONST> 1.040006e+02
<TRANSP> 5
 0.000000e+00 1.000000e+00 0.000000e+00 0.000000e+00 0.000000e+00
 0.000000e+00 6.247085e-01 3.752915e-01 0.000000e+00 0.000000e+00
 0.000000e+00 0.000000e+00 5.000243e-01 4.999757e-01 0.000000e+00
 0.000000e+00 0.000000e+00 0.000000e+00 8.868633e-01 1.131367e-01
 0.000000e+00 0.000000e+00 0.000000e+00 0.000000e+00 0.000000e+00
<ENDHMM>
~h "aw"
<BEGINHMM>
<NUMSTATES> 5
<STATE> 2
<MEAN> 39
 5.488800e+00 -1.034175e+01 -4.516829e+00 -4.409739e+00 -2.448473e+00 -4.311143e-01 2.839885e-01 2.687376e+00 1.989453e+00 -2.634073e+00 -5.769601e+00 -4.728143e+00 1.274938e+01 4.569108e-01 -9.498349e-01 -8.478432e-01 -5.633296e-01 5.960078e-01 1.016088e+00 -6.591869e-02 -3.235687e-01 1.229247e-01 -1.564824e-01 -5.045379e-01 -5.692120e-01 6.780355e-01 -1.229296e-01 3.423729e-01 1.223929e-01 9.278407e-02 1.335556e-01 5.579845e-02 -9.154859e-02 -2.761559e-01 -1.117366e-01 1.366379e-01 2.686448e-01 1.678218e-01 -2.909318e-01
<VARIANCE> 39
 2.293132e+01 4.274629e+01 3.612799e+01 4.000100e+01 5.380457e+01 5.516337e+01 5.570472e+01 5.275633e+01 4.762257e+01 5.241835e+01 4.204089e+01 3.676822e+01 4.986399e+01 1.288411e+00 2.194197e+00 1.882576e+00 2.473665e+00 2.925018e+00 2.800411e+00 3.330524e+00 3.338824e+00 2.815692e+00 2.799793e+00 2.693486e+00 2.351281e+00 1.437232e+00 2.715758e-01 3.457292e-01 2.865312e-01 4.127565e-01 4.610096e-01 4.541793e-01 5.355526e-01 5.538142e-01 5.142583e-01 4.743040e-01 4.464283e-01 4.334489e-01 2.112404e-01
<GCONST> 1.203726e+02
<STATE> 3
<MEAN> 39
 7.643788e+00 -1.126342e+01 -7.151480e+00 -7.542767e+00 -2.510615e-01 4.076465e+00 -1.778468e+00 -8.905547e-01 1.593278e+00 -1.500638e+00 -5.048744e+00 -6.281287e+00 1.380729e+01 3.145849e-01 4.814475e-01 -3.310405e-01 -5.710244e-01 1.747821e-01 6.768820e-01 -2.276122e-01 -6.239713e-01 -2.301331e-01 3.630266e-01 5.481903e-01 1.045455e-01 -3.843543e-01 -2.875054e-02 2.723462e-01 1.337204e-01 8.689521e-02 -1.439895e-01 -2.017026e-01 1.287429e-02 5.344300e-02 -7.300272e-02 6.938651e-04 1.192189e-01 1.810564e-01 -1.791380e-01
<VARIANCE> 39
 1.640022e+01 4.097639e+01 3.166776e+01 4.925629e+01 4.769733e+01 6.579784e+01 5.760326e+01 5.394600e+01 4.930442e+01 6.019724e+01 4.860812e+01 4.000296e+01 3.463211e+01 4.686880e-01 1.477702e+00 1.140179e+00 1.951974e+00 2.149584e+00 2.288762e+00 2.341254e+00 2.393049e+00 2.270586e+00 2.293981e+00 2.289789e+00 2.100728e+00 6.359262e-01 8.245187e-02 1.769280e-01 1.880809e-01 3.081352e-01 3.100181e-01 3.576662e-01 3.836626e-01 3.860976e-01 3.771812e-01 3.832574e-01 3.707982e-01 3.466048e-01 7.458644e-02
<GCONST> 1.094975e+02
<STATE> 4
<MEAN> 39
 7.497307e+00 -3.935209e+00 -6.405403e+00 -7.454161e+00 -7.073160e-01 4.694685e+00 -5.108661e-01 -2.118991e+00 -1.606447e-01 -4.897744e-01 -1.456397e+00 -2.631564e+00 6.929037e+00 -5.612815e-03 5.414856e-01 1.742176e-01 1.463010e-01 -6.293364e-02 -1.663596e-01 -1.063266e-01 -1.317808e-01 -1.496081e-01 1.100489e-01 2.399109e-01 2.521504e-01 -4.762350e-01 -5.242328e-02 1.874017e-02 8.489292e-02 1.404828e-01 9.713450e-03 -1.130549e-01 -3.119335e-02 2.672210e-02 2.476486e-02 5.664547e-03 -3.714968e-02 -9.680904e-03 -3.792873e-02
<VARIANCE> 39
 2.494933e+01 4.457774e+01 2.926659e+01 6.190255e+01 4.729715e+01 5.146334e+01 4.829868e+01 4.229168e+01 4.159753e+01 4.359780e+01 4.032892e+01 3.561102e+01 5.222963e+01 3.745186e-01 9.330435e-01 9.318281e-01 1.647073e+00 1.566532e+00 1.815927e+00 1.768759e+00 1.786509e+00 1.761416e+00 1.705892e+00 1.657912e+00 1.561782e+00 3.813992e-01 5.474401e-02 1.192648e-01 1.381160e-01 2.414974e-01 2.447912e-01 2.661529e-01 2.799918e-01 2.903225e-01 2.907133e-01 2.864965e-01 2.811738e-01 2.581341e-01 4.969243e-02
<GCONST> 1.012184e+02
<TRANSP> 5
 0.000000e+00 1.000000e+00 0.000000e+00 0.000000e+00 0.000000e+00
 0.000000e+00 6.845465e-01 3.154536e-01 0.000000e+00 0.000000e+00
 0.000000e+00 0.000000e+00 7.168232e-01 2.831768e-01 0.000000e+00
 0.000000e+00 0.000000e+00 0.000000e+00 8.973304e-01 1.026696e-01
 0.000000e+00 0.000000e+00 0.000000e+00 0.000000e+00 0.000000e+00
<ENDHMM>
~h "ay"
<BEGINHMM>
<NUMSTATES> 5
<STATE> 2
<MEAN> 39
 5.332054e+00 -6.286785e+00 -7.004385e+00 -7.618867e+00 1.512116e+00 6.220779e+00 -3.627837e-01 -2.327862e+00 1.855133e+00 3.429970e-01 -2.936030e+00 -4.175902e+00 7.942474e+00 3.398301e-01 -1.302999e+00 -4.017092e-01 -3.500373e-01 1.900272e-01 3.628491e-01 -2.048071e-01 1.884821e-01 5.120759e-01 -2.355803e-01 -8.279189e-01 -7.011399e-01 1.136149e+00 -1.753872e-01 1.648675e-01 3.226765e-01 3.429712e-01 -1.006762e-01 -3.960628e-01 5.663658e-03 1.473570e-01 -8.303170e-02 -1.236752e-01 2.511634e-02 1.827007e-01 -1.282936e-01
<VARIANCE> 39
 3.708126e+01 4.476382e+01 3.630359e+01 7.086359e+01 5.150357e+01 6.874398e+01 5.344249e+01 5.173779e+01 4.476475e+01 4.596921e+01 4.105264e+01 4.208740e+01 9.743607e+01 1.857462e+00 2.556529e+00 2.723703e+00 4.280046e+00 3.193043e+00 4.793784e+00 3.255936e+00 4.028862e+00 3.515264e+00 2.975103e+00 3.026965e+00 2.793178e+00 2.848751e+00 3.687325e-01 4.397469e-01 4.129929e-01 6.659963e-01 5.529755e-01 6.757712e-01 5.808101e-01 6.684551e-01 6.034354e-01 5.265965e-01 5.631789e-01 5.609020e-01 4.343768e-01
<GCONST> 1.293764e+02
<STATE> 3
<MEAN> 39
 6.532127e+00 -1.089476e+01 -5.521739e+00 -6.789504e+00 -7.230973e-01 3.018399e+00 -1.757884e+00 3.822836e-01 3.371294e+00 -1.924190e+00 -6.367724e+00 -5.976330e+00 1.316242e+01 -2.388834e-01 -2.192623e-01 1.019534e+00 7.271382e-01 -9.026922e-01 -1.376771e+00 1.719177e-01 1.164659e+00 -4.131061e-02 -5.572363e-01 -1.911545e-01 3.820018e-01 1.102172e-01 -7.085925e-02 4.049998e-01 2.792020e-01 5.625317e-02 -2.332550e-01 -1.871019e-01 8.557297e-02 -6.165756e-02 -3.221133e-01 6.549901e-02 3.975056e-01 2.693809e-01 -2.537421e-01
<VARIANCE> 39
 1.980489e+01 4.207524e+01 3.980556e+01 4.370936e+01 5.542273e+01 7.625186e+01 5.386049e+01 6.286743e+01 4.937679e+01 5.350488e+01 4.239270e+01 3.768010e+01 4.876432e+01 5.807185e-01 1.518839e+00 2.220085e+00 2.134233e+00 3.299087e+00 4.170627e+00 2.679028e+00 3.746199e+00 2.924657e+00 2.451370e+00 3.066868e+00 2.382084e+00 8.158932e-01 1.091529e-01 2.383488e-01 2.579595e-01 3.401925e-01 4.338610e-01 5.201804e-01 4.446803e-01 6.712095e-01 5.506870e-01 4.787912e-01 5.558738e-01 4.312831e-01 1.277855e-01
<GCONST> 1.179974e+02
<STATE> 4
<MEAN> 39
 4.523540e+00 -6.757426e+00 -1.639235e+00 -3.161474e+00 -2.703500e+00 -6.028653e-01 2.351179e-01 2.358822e+00 1.414303e+00 -1.957117e+00 -3.400528e+00 -2.730406e+00 7.799742e+00 -1.524702e-01 3.895334e-01 6.800599e-01 3.008703e-01 -5.079355e-01 -5.542389e-01 4.484841e-02 1.404396e-01 -2.957568e-01 2.584624e-02 3.430338e-01 2.795749e-01 -3.021013e-01 1.665716e-03 1.080934e-01 -1.242899e-02 4.903882e-03 7.811490e-02 6.076384e-02 -5.353441e-02 -1.338863e-01 -3.646680e-02 6.307833e-02 4.677639e-02 -1.580146e-02 -7.753689e-02
<VARIANCE> 39
 2.433326e+01 4.421375e+01 4.908823e+01 4.147875e+01 6.825537e+01 6.521037e+01 4.464618e+01 5.002055e+01 4.084343e+01 3.984904e+01 4.033946e+01 3.340471e+01 8.661055e+01 3.149159e-01 9.218181e-01 1.573165e+00 1.183374e+00 2.154952e+00 2.084177e+00 1.825918e+00 2.335640e+00 2.051855e+00 1.807345e+00 2.075894e+00 1.530304e+00 3.747149e-01 5.327008e-02 1.259396e-01 1.737081e-01 1.874257e-01 3.122342e-01 3.010738e-01 2.936985e-01 3.969338e-01 3.214816e-01 3.028683e-01 3.307384e-01 2.546972e-01 5.947883e-02
<GCONST> 1.047050e+02
<TRANSP> 5
 0.000000e+00 1.000000e+00 0.000000e+00 0.000000e+00 0.000000e+00
 0.000000e+00 6.606419e-01 3.393581e-01 0.000000e+00 0.000000e+00
 0.000000e+00 0.000000e+00 6.162966e-01 3.837034e-01 0.000000e+00
 0.000000e+00 0.000000e+00 0.000000e+00 8.862426e-01 1.137574e-01
 0.000000e+00 0.000000e+00 0.000000e+00 0.000000e+00 0.000000e+00
<ENDHMM>
~h "ch"
<BEGINHMM>
<NUMSTATES> 5
<STATE> 2
<MEAN> 39
 -2.645936e+00 2.193896e-01 3.711951e+00 8.925046e-01 -2.738116e-01 2.449441e-01 -8.480971e-01 -6.116523e-01 8.662947e-01 -2.129349e-01 3.353447e-01 5.320360e-01 -4.876270e-01 -2.185446e+00 -2.194819e-01 3.330393e-01 -3.765690e-01 3.518067e-01 9.596950e-01 7.310761e-01 -1.545377e-02 6.893110e-01 1.633869e-01 5.567139e-01 4.391600e-01 1.701581e-01 -3.230626e-01 -1.626816e-01 9.777851e-02 -2.324489e-01 -2.157928e-01 -8.913261e-02 4.271168e-02 -5.887384e-03 1.724122e-02 -4.150150e-02 2.799964e-02 -5.343588e-02 5.938243e-01
<VARIANCE> 39
 7.502199e+01 5.191808e+01 5.789827e+01 5.930524e+01 5.508640e+01 6.434974e+01 5.653242e+01 5.080218e+01 5.065629e+01 4.079460e+01 3.579131e+01 2.999094e+01 1.101448e+02 6.894105e+00 5.778636e+00 5.328094e+00 6.445552e+00 5.921806e+00 5.607609e+00 5.557270e+00 4.895964e+00 4.695125e+00 4.138852e+00 3.609645e+00 2.939969e+00 1.167785e+01 9.699627e-01 1.045362e+00 8.781173e-01 1.157961e+00 9.727632e-01 1.025339e+00 9.453284e-01 8.828727e-01 8.197470e-01 7.666682e-01 6.626136e-01 5.353000e-01 1.751510e+00
<GCONST> 1.442569e+02
<STATE> 3
<MEAN> 39
 -1.460080e+01 -1.415781e+00 6.932856e+00 -1.654818e+00 -1.511003e+00 1.886580e+00 3.122718e+00 -7.729332e-01 3.780188e+00 -6.519631e-01 2.687170e+00 1.626008e+00 6.806991e+00 -8.805065e-01 -5.991131e-02 4.752851e-01 7.619137e-02 -5.792540e-01 -6.178789e-01 4.030693e-01 6.608135e-02 -4.032461e-02 -3.009455e-01 -1.639240e-02 -1.187072e-01 1.211612e+00 9.677253e-01 3.393902e-02 -2.493726e-01 2.452757e-01 -4.003967e-02 -3.330254e-01 -2.898640e-01 3.878185e-02 -2.377057e-01 -3.954346e-02 -2.000884e-01 -1.323890e-01 -3.355320e-01
<VARIANCE> 39
 6.931177e+01 3.536012e+01 3.776281e+01 4.482220e+01 4.443913e+01 4.946033e+01 4.645300e+01 3.953091e+01 3.329346e+01 3.032618e+01 2.726539e+01 2.061407e+01 4.092993e+01 1.298743e+01 2.974813e+00 3.611100e+00 3.764009e+00 3.564176e+00 4.666633e+00 4.998176e+00 3.568136e+00 3.279768e+00 2.901353e+00 2.817052e+00 2.121544e+00 4.020273e+00 1.224284e+00 5.827163e-01 6.140649e-01 7.620720e-01 6.882516e-01 8.044649e-01 8.754238e-01 7.091923e-01 6.165010e-01 5.782155e-01 5.298755e-01 4.163086e-01 7.453896e-01
<GCONST> 1.314737e+02
<STATE> 4
<MEAN> 39
 -1.241355e+01 -2.373943e+00 7.113950e+00 4.540861e-02 -3.504007e+00 -6.699835e-01 3.438263e+00 -4.690243e-01 2.786574e+00 -1.634382e+00 1.543568e+00 8.582626e-01 7.403682e+00 1.861264e+00 -7.362484e-02 -4.692219e-01 2.748493e-01 -2.302101e-01 -7.838643e-01 -6.252259e-01 1.089257e-01 -3.352310e-01 -1.597149e-01 -2.841153e-01 -2.312309e-01 -1.861130e-01 4.287656e-01 6.916367e-03 -1.579534e-01 -9.571855e-02 4.859576e-02 3.767275e-02 -2.457294e-01 -4.089402e-02 -4.412776e-02 3.558202e-02 -2.319584e-02 -3.456433e-02 -1.140600e-01
<VARIANCE> 39
 8.199860e+01 2.941352e+01 3.368765e+01 3.538939e+01 4.035395e+01 5.089568e+01 4.465563e+01 3.384783e+01 3.168181e+01 2.776899e+01 2.461221e+01 2.000423e+01 3.500030e+01 6.301225e+00 1.915264e+00 2.338025e+00 2.182343e+00 2.779770e+00 3.303318e+00 4.155221e+00 2.750549e+00 2.668271e+00 2.437419e+00 2.198223e+00 1.858278e+00 1.946350e+00 8.265048e-01 3.287705e-01 3.471971e-01 3.843606e-01 4.330185e-01 5.536596e-01 6.006329e-01 4.830396e-01 4.676714e-01 4.429047e-01 3.950963e-01 3.407227e-01 3.489710e-01
<GCONST> 1.201358e+02
<TRANSP> 5
 0.000000e+00 1.000000e+00 0.000000e+00 0.000000e+00 0.000000e+00
 0.000000e+00 7.865169e-01 2.134831e-01 0.000000e+00 0.000000e+00
 0.000000e+00 0.000000e+00 7.012786e-01 2.987214e-01 0.000000e+00
 0.000000e+00 0.000000e+00 0.000000e+00 8.189741e-01 1.810259e-01
 0.000000e+00 0.000000e+00 0.000000e+00 0.000000e+00 0.000000e+00
<ENDHMM>
~h "dh"
<BEGINHMM>
<NUMSTATES> 5
<STATE> 2
<MEAN> 39
 -1.337428e+00 4.246478e+00 -1.283942e+00 5.408437e+00 1.327529e+00 2.949823e+00 8.887833e-01 8.269839e-01 7.962558e-01 1.782648e+00 3.781888e-01 1.108124e+00 -1.148807e+01 -3.359394e-01 2.082031e-01 -8.494323e-02 3.056535e-01 3.386868e-01 3.117588e-01 3.014853e-01 1.327353e-01 6.989311e-02 -3.076047e-02 5.681953e-02 1.012291e-01 -5.107490e-01 7.509463e-02 -1.900611e-01 -4.766416e-04 -2.500128e-01 -2.075535e-01 -2.168170e-01 -1.542418e-01 -1.650786e-02 2.263156e-02 -5.780438e-02 -2.778532e-02 -3.757386e-02 4.473700e-01
<VARIANCE> 39
 5.567131e+01 2.923398e+01 3.473228e+01 4.095161e+01 3.431676e+01 6.902773e+01 3.719747e+01 4.910722e+01 3.007548e+01 3.045342e+01 2.597523e+01 2.900462e+01 3.137998e+02 2.427167e+00 1.936234e+00 1.735928e+00 2.177273e+00 2.246382e+00 2.718122e+00 2.529928e+00 2.500823e+00 2.362534e+00 2.209300e+00 2.004480e+00 1.816071e+00 4.641373e+00 3.868841e-01 3.868866e-01 3.173111e-01 4.395985e-01 4.621723e-01 5.242729e-01 4.844993e-01 5.039265e-01 4.712744e-01 4.348184e-01 3.899986e-01 3.543337e-01 7.861710e-01
<GCONST> 1.213150e+02
<STATE> 3
<MEAN> 39
 -5.553271e-01 3.407830e+00 6.659795e-01 3.325226e+00 1.755993e+00 -8.328669e-01 6.569761e-02 -1.658507e+00 4.017018e-01 -2.161342e-02 -7.028340e-01 -5.771671e-01 -1.834505e+00 -1.044941e-01 -3.089656e-01 -9.399988e-02 -3.476212e-01 -2.984502e-01 -4.597554e-01 -1.414060e-01 5.164516e-02 2.102037e-01 -1.903473e-01 -2.122608e-02 3.935599e-02 9.129131e-01 2.203285e-01 -2.595828e-01 1.426113e-02 -3.093235e-01 -3.721727e-01 -2.771971e-01 -2.670363e-01 4.034361e-02 6.982791e-02 2.560615e-02 -2.825457e-02 -3.980333e-02 4.579984e-01
<VARIANCE> 39
 4.486301e+01 3.335297e+01 3.049060e+01 3.615403e+01 3.964890e+01 4.327550e+01 4.339116e+01 4.181085e+01 3.493267e+01 2.985466e+01 2.832978e+01 2.750757e+01 7.134465e+01 2.991254e+00 2.752930e+00 2.335095e+00 3.034955e+00 3.308437e+00 3.959456e+00 3.663647e+00 3.387416e+00 3.157402e+00 2.716710e+00 2.474003e+00 2.366621e+00 6.290263e+00 5.440605e-01 5.317615e-01 4.583525e-01 5.948465e-01 6.787485e-01 7.450350e-01 7.365960e-01 6.465028e-01 6.136551e-01 5.515895e-01 5.052438e-01 4.631878e-01 9.120063e-01
<GCONST> 1.271418e+02
<STATE> 4
<MEAN> 39
 -1.745054e+00 1.064783e+00 -4.554214e-01 2.542161e+00 2.574145e+00 9.629024e-01 1.527405e+00 6.540251e-01 1.185623e+00 4.760019e-01 3.484509e-01 1.069781e+00 -4.597878e+00 3.048225e-02 -1.138046e-01 -1.806467e-02 -1.357326e-01 -1.659708e-01 -1.473213e-01 -1.018011e-01 1.342806e-02 6.005406e-02 -2.594220e-02 -2.023861e-02 -1.129898e-02 2.538663e-01 8.336928e-02 -4.052009e-02 3.578486e-02 -7.166290e-02 -1.007427e-01 -8.907152e-02 -8.903959e-02 -1.764084e-02 -1.982714e-03 1.161915e-03 -2.788871e-02 -3.493089e-02 1.475698e-01
<VARIANCE> 39
 2.329320e+01 2.198252e+01 1.911838e+01 2.091586e+01 2.497579e+01 2.959698e+01 2.886677e+01 2.777876e+01 2.350129e+01 2.192426e+01 2.073386e+01 1.970947e+01 4.804311e+01 1.083447e+00 1.173409e+00 1.122538e+00 1.479568e+00 1.838812e+00 2.110627e+00 2.084906e+00 1.988532e+00 1.954731e+00 1.802708e+00 1.652041e+00 1.526307e+00 1.738824e+00 1.997850e-01 1.984142e-01 2.094319e-01 2.650056e-01 3.320505e-01 3.744250e-01 4.030655e-01 3.730583e-01 3.676179e-01 3.522477e-01 3.270342e-01 3.001331e-01 2.389129e-01
<GCONST> 1.036964e+02
<TRANSP> 5
 0.000000e+00 1.000000e+00 0.000000e+00 0.000000e+00 0.000000e+00
 0.000000e+00 4.734132e-01 5.265868e-01 0.000000e+00 0.000000e+00
 0.000000e+00 0.000000e+00 3.550210e-01 6.449789e-01 0.000000e+00
 0.000000e+00 0.000000e+00 0.000000e+00 8.315402e-01 1.684598e-01
 0.000000e+00 0.000000e+00 0.000000e+00 0.000000e+00 0.000000e+00
<ENDHMM>
~h "eh"
<BEGINHMM>
<NUMSTATES> 5
<STATE> 2
<MEAN> 39
 3.378372e+00 -3.629880e+00 1.197210e+00 -1.943178e+00 -5.775525e+00 -5.691889e+00 -2.564116e+00 1.803128e+00 1.397846e+00 -9.456635e-01 -2.251084e+00 -2.063843e+00 8.536944e+00 1.154704e+00 -1.587928e+00 1.341735e-01 -9.476051e-01 -1.492042e+00 -6.386536e-01 -5.403556e-01 1.085503e+00 4.540207e-01 -3.303615e-01 -6.735628e-01 -4.872654e-01 1.705325e+00 -2.672110e-01 9.437221e-02 -5.449698e-02 4.560491e-02 2.693878e-01 3.083575e-01 1.996119e-01 -3.722846e-02 -1.218279e-01 9.850828e-03 1.185150e-01 8.286835e-02 -1.962977e-01
<VARIANCE> 39
 3.464933e+01 5.144156e+01 4.444476e+01 4.027210e+01 6.068570e+01 5.330323e+01 6.311166e+01 5.132524e+01 4.762536e+01 4.105153e+01 3.729289e+01 3.294028e+01 7.473258e+01 4.601598e+00 3.971885e+00 3.504963e+00 3.757601e+00 5.281497e+00 4.804262e+00 6.040887e+00 5.053601e+00 4.353390e+00 3.779534e+00 3.631538e+00 3.305895e+00 3.790320e+00 6.630081e-01 6.205816e-01 4.561965e-01 5.580786e-01 8.177785e-01 7.236375e-01 8.688238e-01 7.787901e-01 6.877548e-01 5.864040e-01 5.774482e-01 5.079030e-01 6.015685e-01
<GCONST> 1.347633e+02
<STATE> 3
<MEAN> 39
 5.226221e+00 -7.832117e+00 1.394600e+00 -4.203239e+00 -8.450876e+00 -6.088659e+00 -3.068421e+00 4.714140e+00 1.973991e+00 -1.750561e+00 -3.462698e+00 -3.078535e+00 1.270153e+01 2.499478e-01 -7.065775e-01 -6.755492e-02 -2.995495e-01 -2.275157e-01 1.994010e-01 1.421551e-01 5.838134e-01 1.598003e-02 -2.501726e-01 -2.564821e-01 -1.770174e-01 4.106142e-01 -2.727814e-01 5.626605e-01 -6.745111e-02 3.379953e-01 5.297729e-01 2.297781e-01 1.374796e-01 -4.473579e-01 -2.233526e-01 8.162456e-02 2.298751e-01 1.402622e-01 -5.611824e-01
<VARIANCE> 39
 2.003958e+01 4.334792e+01 4.521873e+01 3.601469e+01 5.372249e+01 5.081299e+01 5.964373e+01 5.104240e+01 5.450589e+01 4.536276e+01 4.019614e+01 3.329866e+01 4.616275e+01 1.324070e+00 2.658884e+00 2.486814e+00 2.568925e+00 3.309626e+00 3.074618e+00 3.585528e+00 3.567430e+00 2.951030e+00 2.696259e+00 2.572677e+00 2.258822e+00 1.866226e+00 3.585821e-01 4.229154e-01 3.890666e-01 4.599464e-01 5.618688e-01 5.935386e-01 7.155776e-01 6.674549e-01 6.080128e-01 5.252460e-01 5.102516e-01 4.438125e-01 2.698602e-01
<GCONST> 1.236763e+02
<STATE> 4
<MEAN> 39
 5.406620e+00 -7.703028e+00 6.538799e-01 -3.277836e+00 -7.561018e+00 -5.387609e+00 -1.826917e+00 5.473971e+00 1.684405e+00 -2.382872e+00 -3.399640e+00 -2.769580e+00 1.130001e+01 8.023605e-02 3.456398e-01 -1.674854e-01 2.813008e-01 5.066603e-01 1.535517e-01 -1.415137e-01 -2.626630e-01 -1.057276e-01 2.215419e-02 4.984360e-02 3.316043e-02 -4.920716e-01 -5.547927e-02 2.776518e-01 3.051532e-02 1.449041e-01 1.671820e-01 1.526239e-02 -5.024169e-02 -2.304453e-01 -7.360989e-02 7.852355e-02 1.020739e-01 5.544312e-02 -2.341822e-01
<VARIANCE> 39
 1.905685e+01 3.816844e+01 4.405575e+01 3.444577e+01 5.664314e+01 5.340455e+01 5.581111e+01 4.917973e+01 5.148746e+01 4.362331e+01 4.028854e+01 3.258477e+01 5.391720e+01 6.286729e-01 1.442266e+00 1.526004e+00 1.493019e+00 1.826497e+00 1.926234e+00 2.192029e+00 2.374385e+00 1.985983e+00 1.797566e+00 1.731182e+00 1.455161e+00 8.832349e-01 1.309977e-01 2.248754e-01 2.107838e-01 2.638072e-01 3.231245e-01 3.312617e-01 3.770744e-01 4.037948e-01 3.581063e-01 3.264505e-01 3.196447e-01 2.709155e-01 1.534854e-01
<GCONST> 1.091153e+02
<TRANSP> 5
 0.000000e+00 1.000000e+00 0.000000e+00 0.000000e+00 0.000000e+00
 0.000000e+00 4.711753e-01 5.288247e-01 0.000000e+00 0.000000e+00
 0.000000e+00 0.000000e+00 3.584846e-01 6.415154e-01 0.000000e+00
 0.000000e+00 0.000000e+00 0.000000e+00 7.895804e-01 2.104196e-01
 0.000000e+00 0.000000e+00 0.000000e+00 0.000000e+00 0.000000e+00
<ENDHMM>
~h "er"
<BEGINHMM>
<NUMSTATES> 5
<STATE> 2
<MEAN> 39
 8.880804e+00 -4.922701e+00 -5.687227e+00 -2.349778e-01 -1.245618e+00 -6.929520e+00 -9.868443e+00 1.042035e+00 2.358201e+00 -6.997613e-01 -3.107972e-01 -6.840022e-01 8.225729e+00 1.272399e+00 -6.083314e-01 -1.041166e+00 9.500339e-02 2.630999e-01 -8.900909e-01 -1.812190e+00 5.777429e-01 7.673616e-01 -3.090759e-02 -2.387122e-01 8.925454e-02 3.745403e-01 -4.668359e-01 1.719620e-01 2.478613e-01 7.694586e-02 9.470421e-02 2.558917e-01 4.354776e-01 -2.928967e-02 -7.615565e-02 -1.209268e-02 -8.812163e-03 3.973165e-02 -2.088076e-01
<VARIANCE> 39
 3.475130e+01 3.426577e+01 6.871224e+01 4.327258e+01 6.256327e+01 6.303008e+01 8.342245e+01 6.653895e+01 5.223922e+01 4.554713e+01 3.727622e+01 3.593929e+01 3.517399e+01 3.302248e+00 2.369795e+00 3.178048e+00 2.876225e+00 3.933129e+00 3.789813e+00 5.609784e+00 4.417589e+00 3.600289e+00 3.243112e+00 2.759031e+00 2.583338e+00 1.504090e+00 5.203273e-01 3.882466e-01 4.849246e-01 4.407555e-01 6.097884e-01 6.031882e-01 9.283184e-01 7.083860e-01 6.031641e-01 5.456865e-01 4.753321e-01 4.497192e-01 2.210602e-01
<GCONST> 1.284801e+02
<STATE> 3
<MEAN> 39
 9.889799e+00 -5.473799e+00 -7.014267e+00 9.799182e-01 2.894897e-01 -8.454535e+00 -1.235626e+01 2.801316e+00 4.163668e+00 -1.101145e+00 -1.283333e+00 -2.121700e-01 7.639910e+00 -2.276281e-01 1.433229e-01 3.391803e-01 4.049361e-01 4.800433e-02 -2.051016e-02 3.755071e-01 1.683604e-01 -3.045816e-02 -1.700106e-01 -1.550563e-01 1.119570e-01 -4.494244e-01 -3.270163e-01 2.164382e-01 3.306170e-01 1.473471e-02 -6.990373e-02 2.743098e-01 5.425549e-01 -1.903849e-01 -2.552021e-01 5.136771e-03 7.028517e-02 -1.834342e-02 -1.762411e-01
<VARIANCE> 39
 3.014759e+01 3.351262e+01 6.639432e+01 4.783499e+01 6.530222e+01 7.078123e+01 9.904330e+01 7.645977e+01 5.840670e+01 5.271101e+01 3.821453e+01 3.635244e+01 4.039362e+01 1.262158e+00 1.797105e+00 2.820344e+00 2.120653e+00 3.107081e+00 3.114292e+00 4.495853e+00 3.560935e+00 2.987242e+00 2.843295e+00 2.359202e+00 2.013410e+00 1.177528e+00 2.568896e-01 3.002619e-01 3.657525e-01 3.854468e-01 5.080716e-01 5.412786e-01 7.415086e-01 6.487479e-01 5.342194e-01 5.147986e-01 4.283055e-01 3.848408e-01 1.538598e-01
<GCONST> 1.229987e+02
<STATE> 4
<MEAN> 39
 6.719642e+00 -3.366386e+00 -4.524938e+00 1.597413e+00 5.185673e-02 -5.531246e+00 -7.008239e+00 1.985058e+00 3.479944e+00 -3.150289e-01 -1.368177e+00 -9.757839e-04 3.589476e+00 -3.292845e-01 2.288655e-01 3.697692e-01 1.651932e-01 1.706077e-02 2.452823e-01 4.845216e-01 -7.139708e-02 -2.208205e-01 -5.089926e-02 1.509776e-03 4.774185e-02 -4.016494e-01 -9.331482e-02 5.971974e-02 1.020334e-01 -2.335983e-02 -2.291795e-02 8.168400e-02 1.073613e-01 -6.514041e-02 -7.117137e-02 1.494488e-02 2.747535e-02 -1.653414e-02 -2.249741e-02
<VARIANCE> 39
 4.147513e+01 3.156430e+01 4.588482e+01 3.802423e+01 4.969712e+01 6.763194e+01 8.631810e+01 5.285292e+01 4.441599e+01 4.060110e+01 3.294714e+01 2.966690e+01 6.394555e+01 6.998018e-01 9.579315e-01 1.462291e+00 1.289559e+00 1.735966e+00 1.910017e+00 2.434333e+00 2.012907e+00 1.896173e+00 1.772716e+00 1.610588e+00 1.407903e+00 5.676335e-01 1.278789e-01 1.659336e-01 1.889636e-01 2.197679e-01 2.761444e-01 3.245354e-01 3.837642e-01 3.523104e-01 3.247681e-01 3.139435e-01 2.864746e-01 2.539451e-01 8.463571e-02
<GCONST> 1.070710e+02
<TRANSP> 5
 0.000000e+00 1.000000e+00 0.000000e+00 0.000000e+00 0.000000e+00
 0.000000e+00 6.076925e-01 3.923075e-01 0.000000e+00 0.000000e+00
 0.000000e+00 0.000000e+00 5.390944e-01 4.609056e-01 0.000000e+00
 0.000000e+00 0.000000e+00 0.000000e+00 8.513407e-01 1.486593e-01
 0.000000e+00 0.000000e+00 0.000000e+00 0.000000e+00 0.000000e+00
<ENDHMM>
~h "ey"
<BEGINHMM>
<NUMSTATES> 5
<STATE> 2
<MEAN> 39
 4.468553e+00 -6.255349e+00 6.025465e+00 -3.059838e+00 -1.207670e+01 -8.101236e+00 -2.427449e+00 3.540169e+00 -6.416452e-01 -1.915228e+00 -4.102271e-01 -1.017888e+00 1.214475e+01 1.000227e-01 -5.516804e-01 1.494402e+00 -7.115182e-01 -2.104483e+00 -2.711185e-01 2.699607e-01 2.237143e-01 -9.588619e-01 3.248625e-03 8.211102e-01 1.090425e-01 7.949090e-01 -2.450597e-01 3.505961e-01 -7.426861e-02 7.572713e-02 4.394670e-01 3.882786e-01 6.454451e-02 -4.246417e-01 -1.270626e-01 2.288104e-01 1.028281e-01 -6.700715e-02 -3.707182e-01
<VARIANCE> 39
 1.819720e+01 4.115522e+01 4.381835e+01 3.699333e+01 5.085970e+01 4.637347e+01 5.381451e+01 5.250415e+01 5.136718e+01 3.826205e+01 4.001461e+01 2.940299e+01 4.099641e+01 1.878343e+00 2.649055e+00 2.470360e+00 2.546673e+00 3.769789e+00 3.417517e+00 4.182030e+00 4.099614e+00 3.481160e+00 2.949461e+00 2.718812e+00 2.361246e+00 1.955342e+00 3.429647e-01 3.680153e-01 3.655189e-01 3.861584e-01 5.797149e-01 5.400832e-01 6.758004e-01 6.798610e-01 5.844094e-01 4.752509e-01 4.988321e-01 4.161676e-01 2.324336e-01
<GCONST> 1.231874e+02
<STATE> 3
<MEAN> 39
 3.758865e+00 -5.840425e+00 1.087737e+01 -4.653318e+00 -1.586739e+01 -7.226363e+00 -2.253556e+00 1.718362e+00 -4.780758e+00 -7.730595e-01 2.302480e+00 -1.428526e+00 1.254765e+01 -1.917856e-01 5.398032e-01 7.959026e-01 -5.444808e-02 -3.079913e-01 4.128122e-01 1.102617e-01 -8.187309e-01 -7.319323e-01 2.929896e-01 2.865930e-01 -1.980855e-01 -4.020973e-01 -1.880923e-02 2.237878e-01 -3.239103e-01 2.441244e-01 5.415449e-01 9.492812e-02 -6.194447e-02 -1.289815e-01 2.135082e-01 -1.814003e-02 -2.247124e-01 -1.953746e-02 -2.842215e-01
<VARIANCE> 39
 1.522603e+01 3.610925e+01 5.046804e+01 4.346593e+01 4.713544e+01 4.849342e+01 5.168371e+01 5.626278e+01 5.378248e+01 4.566997e+01 4.086085e+01 3.192896e+01 3.692251e+01 5.543728e-01 1.407251e+00 1.999272e+00 1.791535e+00 2.363239e+00 2.127346e+00 2.313510e+00 2.770241e+00 2.565989e+00 2.108459e+00 2.022319e+00 1.613672e+00 9.348997e-01 1.363271e-01 2.269945e-01 3.263979e-01 3.042510e-01 4.341800e-01 4.014751e-01 4.780295e-01 4.797091e-01 4.575844e-01 3.937996e-01 3.702388e-01 3.128622e-01 1.266519e-01
<GCONST> 1.123423e+02
<STATE> 4
<MEAN> 39
 3.068363e+00 -1.819902e+00 1.093368e+01 -3.192002e+00 -1.372787e+01 -4.728590e+00 -1.407692e+00 -2.001401e+00 -5.061369e+00 -7.867505e-02 1.855996e+00 -1.721951e+00 8.486971e+00 -7.058794e-02 4.658053e-01 -3.992822e-02 3.634460e-01 5.907434e-01 2.208384e-01 -1.699261e-02 -3.626354e-01 -1.213191e-01 5.251740e-03 -1.307022e-01 -2.181947e-02 -6.057276e-01 -1.860433e-02 2.122121e-02 -1.885976e-01 1.026368e-01 2.425287e-01 -1.315912e-02 9.113653e-03 7.717934e-02 1.204173e-01 -3.575275e-02 -6.265397e-02 3.143526e-02 -8.345187e-02
<VARIANCE> 39
 1.339073e+01 3.143410e+01 4.660454e+01 4.506655e+01 5.489747e+01 5.085079e+01 4.441707e+01 5.253498e+01 4.646439e+01 3.905518e+01 3.515981e+01 2.851804e+01 4.063578e+01 4.160348e-01 8.772255e-01 1.616253e+00 1.295667e+00 2.082638e+00 1.627429e+00 1.713003e+00 1.969301e+00 1.855408e+00 1.574263e+00 1.482269e+00 1.226838e+00 5.742056e-01 9.161775e-02 1.375583e-01 2.174606e-01 2.217952e-01 3.243857e-01 2.883003e-01 3.003460e-01 3.308424e-01 3.214498e-01 2.798764e-01 2.623536e-01 2.242031e-01 8.693450e-02
<GCONST> 1.026923e+02
<TRANSP> 5
 0.000000e+00 1.000000e+00 0.000000e+00 0.000000e+00 0.000000e+00
 0.000000e+00 6.269370e-01 3.730630e-01 0.000000e+00 0.000000e+00
 0.000000e+00 0.000000e+00 5.657443e-01 4.342557e-01 0.000000e+00
 0.000000e+00 0.000000e+00 0.000000e+00 8.751118e-01 1.248882e-01
 0.000000e+00 0.000000e+00 0.000000e+00 0.000000e+00 0.000000e+00
<ENDHMM>
~h "hh"
